tree
version=v2
num_class=1
num_tree_per_iteration=1
label_index=0
max_feature_idx=3
objective=binary sigmoid:1
feature_names=person_info finance_info credit_info act_info
feature_infos=[-0.32258064516129031:0.078853046594982074] [0.023809523809523808:1.0238095238095235] [0:1] [0.076923076923076927:1.0897435897435896]
tree_sizes=1031 1025 1045 1038 1043 1053 1052 1041 1042 1042 1019 1044 1051 1048 1051 1041 1057 1046 1047 1050 1056 1064 1058 1054 1050 1057 1060 1056 1062 1058 1056 1059 1059 1064 1059 1067 1056 1051 1067 1071 1069 1065 1054 1059 1069 1064 1051 1063 1068 1067 1057 1063 1059 1070 1059 1053 1068 1046 1062 1057 1060 1059 1063 1062 1069 1072 1067 1073 1068 1072 1061 1077 1064 1071 1071 1071 1080 1057 1071 1063 1069 1070 1054 1065 1068 1041 1043 1066 1072 1070 1065 1073 1061 1064 1069 1073 1065 1078 1076 1059 1052 1066 1055 1065 1064 1076 1073 1077 1074 1076 1088 1071 1077 1077 1089 1052 1071 1050 1069 1073 1058 1066 1073 1076 1076 1079 1079 1084 1065 1070 1048 1066 1063 1068 1065 1075 1060 1067 1073 1070 1072 1071 1069 1068 1068 1084 1064 1070 1086 1066 1058 1070 1065 1079 1079 1073 1071 1070 1073 1070 1057 1074 1078 1053 1053 1071 1063 1069 1057 1079 1071 1076 1075 1075 1081 1045 1049 1070 1072 1071 1074 1077 1076 1064 1068 1081 1057 1067 1062 1082 1087 1078 1073 1079 1078 1058 1067 1073 1073 1072 1070 1071 1065 1069 1066 1069 1071 1070 1050 1068 1092 1075 1059 1058 1090 1076 1068 1090 1085 1084 1072 1066 1062 1040 1076 1056 1053 1093 1053 1056 1077 1076 1080 1070 1070 1053 1052 1051 1074 1054 1071 1073 1077 1080 1080 1082 1074 1070 1074 1077 1063 1070 1067 1065 1064 1075 1067 1068 1076 1068 1075 1068 1070 1073 1057 1086 1087 1089 1065 1088 1052 1054 1076 1057 1061 1058 1047 1077 1038 1048 1050 1051 1086 1055 1062 1071 1063 1070 1081 1042 1067 1074 1068 1071 1067 1080 1082 1062 1077 1060 1065 1071 1081 1058 1064 1067 1070 1062 1069 1062 1042 1043 1041 1062 1062 1058 1066 1068 1069 1065 1058 1063 1064 1080 1071 1050 1079 1059 1050 1045 1092 1058 1074 1060 1084 1057 1056 1056 1057 1047 1064 1071 1069 1046 1076 1051 1073 1073 1055 1058 1066 1091 1073 1067 1067 1061 1061 1055 1051 1058 1038 1057 1044 1054 1054 1061 1061 1060 1069 1064 1067 1050 1040 1067 1049 1071 1064 1060 1062 1070 1066 1040 1081 1051 1080 1047 1055 1058 1044 1054 1029 1055 1062 1044 1054 1047 1046 1042 1045 1056 1076 1077 1080 1065 1039 1070 1068 1068 1050 1067 1065 1066 1044 1054 1054 1070 1028 1069 1031 1028 1049 1052 1051 1050 1053 1051 1058 1066 1052 1055 1061 1078 1056 1050 1074 1051 1071 1074 1053 1067 1060 1063 1061 1064 1065 1072 1067 1050 1068 1072 1033 1030 1039 1024 1033 1079 1078 1070 1056 1076 1075 1076 1081 1074 1078 1017 1079 1051 1053 1079 1077 1068 1064 1041 1062 1057 1058 1062 1058 1061 1069 1072 1050 1070 1070 1055 1060 1055 1058 1037 1033 1034 1043 1043 1045 1045 1056 1072 1049 1074

Tree=0
num_leaves=12
num_cat=0
split_feature=2 0 2 2 0 2 0 3 2 0 3
split_gain=748.071 228.849 76.5262 74.0165 72.1468 56.8413 48.7585 47.2324 32.2262 30.2783 27.942
threshold=0.03500000000000001 0.070756630824372765 0.81500000000000006 0.99500000000000011 1.0000000180025095e-35 0.84500000000000008 -1.0000000180025095e-35 0.18589743589743593 0.20500000000000004 -0.19484569892473116 0.1730769230769231
decision_type=2 2 2 2 2 2 2 2 2 2 2
left_child=4 3 -3 7 -1 -4 -5 9 -9 -2 -6
right_child=1 2 5 6 10 -7 -8 8 -10 -11 -12
leaf_value=-3.9838718602577186 -3.9717615189670958 -3.9541467533088523 -3.8018330034662586 -3.9433937167833664 -3.9747567948512912 -3.9229436890482505 -3.8513111494052432 -3.9768265744156102 -3.9642626791563984 -3.9600840513190181 -3.9804507717499082
leaf_count=25574 2100 6514 24 142 8808 201 41 5694 1409 2960 10396
internal_value=0 1.23659 2.33903 0.634823 -0.522067 6.60387 5.33008 0.56418 0.172964 1.11335 -0.177525
internal_count=63863 19085 6739 12346 44778 225 183 12163 7103 5060 19204
shrinkage=1


Tree=1
num_leaves=12
num_cat=0
split_feature=1 1 2 1 1 2 3 2 2 1 2
split_gain=1761.66 369.578 232.486 97.1929 91.2991 68.8724 61.5511 69.6413 65.7075 51.434 47.7254
threshold=0.083333333333333343 0.15476190476190479 0.03500000000000001 0.34523809523809529 0.035714285714285719 0.025000000000000005 0.16025641025641027 0.32500000000000007 0.14500000000000005 0.035714285714285719 0.99500000000000011
decision_type=2 2 2 2 2 2 2 2 2 2 2
left_child=2 -2 9 5 -4 -3 7 8 -5 -1 -7
right_child=1 3 4 6 -6 10 -8 -9 -10 -11 -12
leaf_value=-0.0066439025124907739 0.033119947317220962 0.16638624302643559 0.0012236117009248534 0.1531604888246246 0.013944111653723867 0.068176141920250205 0.075373107958113972 0.063374396975446751 0.3004794306376064 0.0025179368388943313 0.15416902308284955
leaf_count=40497 2553 44 11702 40 4185 988 51 22 28 3718 35
internal_value=0 4.90991 -0.307622 8.2709 0.458087 7.50915 14.0249 17.6846 21.3876 -0.587303 7.1239
internal_count=63863 3761 60102 1208 15887 1067 141 90 68 44215 1023
shrinkage=0.01


Tree=2
num_leaves=12
num_cat=0
split_feature=1 1 2 0 0 2 1 0 1 1 2
split_gain=1649.99 307.041 228.821 100.376 75.507 101.073 71.4545 52.5407 49.4795 43.9159 43.4267
threshold=0.083333333333333343 0.15476190476190479 0.03500000000000001 0.070756630824372765 0.070756630824372765 0.045000000000000005 0.44047619047619052 1.0000000180025095e-35 0.035714285714285719 0.34523809523809529 0.12500000000000003
decision_type=2 2 2 2 2 2 2 2 2 2 2
left_child=2 -2 7 -4 9 -6 10 -1 -9 -3 -7
right_child=1 4 3 -5 5 6 -8 8 -10 -11 -12
leaf_value=-0.0080812900329764147 0.031755196584558408 0.051820797034684868 0.00034202087756935015 0.012760528138612786 0.20267049344735177 0.11481126950266246 0.18677690170156541 -0.0041179968590350953 0.0088447560863320878 0.10937544699029461 0.067010485301817468
leaf_count=25317 2553 568 10611 5276 39 129 30 17098 1800 73 369
internal_value=0 4.63251 -0.305466 0.451479 7.55209 9.41793 8.60069 -0.584747 -0.287273 5.86798 7.93181
internal_count=63863 3761 60102 15887 1208 567 528 44215 18898 641 498
shrinkage=0.01


Tree=3
num_leaves=12
num_cat=0
split_feature=1 1 1 0 0 3 1 1 3 3 0
split_gain=1549.95 261.817 219.527 75.5693 71.4685 48.0853 46.9117 33.9619 47.8564 33.4473 29.8676
threshold=0.083333333333333343 0.17857142857142858 0.035714285714285719 0.038261827956989257 1.0000000180025095e-35 0.1730769230769231 0.13095238095238099 0.34523809523809529 0.16025641025641027 0.36538461538461547 0.070756630824372765
decision_type=2 2 2 2 2 2 2 2 2 2 2
left_child=2 6 3 -1 -4 7 9 8 -3 -2 -8
right_child=1 5 4 -5 -6 -7 10 -9 -10 -11 -12
leaf_value=-0.006966226646956405 0.031441981824348375 0.074476221707033094 0.0010098973823688443 -0.0010569112484289181 0.015061861393689495 0.056239496234770647 0.03487948928757427 0.12205251974533921 0.17699503665214514 0.0072507500929322368 0.062525580588605939
leaf_count=33325 1740 405 3792 18874 4111 360 424 99 23 356 354
internal_value=0 4.38369 -0.303322 -0.481131 0.840654 7.59017 3.30206 8.87451 7.98924 2.73584 4.76979
internal_count=63863 3761 60102 52199 7903 887 2874 527 428 2096 778
shrinkage=0.01


Tree=4
num_leaves=12
num_cat=0
split_feature=1 2 1 1 1 2 1 2 3 2 3
split_gain=1459.82 224.727 220.918 83.9491 49.6444 47.7433 41.3718 39.8141 33.179 31.1993 30.7491
threshold=0.083333333333333343 0.03500000000000001 0.17857142857142858 0.035714285714285719 0.035714285714285719 0.10500000000000002 0.13095238095238099 0.87500000000000011 0.18589743589743593 0.20500000000000004 0.36538461538461547
decision_type=2 2 2 2 2 2 2 2 2 2 2
left_child=1 4 6 9 -1 8 10 -5 -4 -3 -2
right_child=2 3 5 7 -6 -7 -8 -9 -10 -11 -12
leaf_value=-0.0065788848823566263 0.030197701624045968 -0.0006657954034872955 0.11464520576436593 0.012110147924248544 0.0023868092105614044 0.061357929004113083 0.045097862588781241 0.056140563574001386 0.057713946815556152 0.0089698359114001175 0.0071281754492015306
leaf_count=40497 1740 9436 138 4077 3718 683 778 108 66 2266 356
internal_value=0 -0.301185 4.15919 0.446394 -0.580531 6.98466 3.16628 1.32897 9.73136 0.121451 2.6378
internal_count=63863 60102 3761 15887 44215 887 2874 4185 204 11702 2096
shrinkage=0.01


Tree=5
num_leaves=12
num_cat=0
split_feature=2 0 0 2 2 2 3 3 0 0 2
split_gain=648.042 183.182 75.1967 57.8685 37.8558 33.7035 42.4472 33.3227 30.8894 28.8295 27.6452
threshold=0.03500000000000001 0.070756630824372765 1.0000000180025095e-35 0.21500000000000002 0.81500000000000006 0.99500000000000011 0.30128205128205138 0.16025641025641027 -0.091197491039426509 -1.0000000180025095e-35 0.095000000000000015
decision_type=2 2 2 2 2 2 2 2 2 2 2
left_child=2 3 -1 7 10 -5 9 8 -2 -7 -3
right_child=1 4 -4 5 -6 6 -8 -9 -10 -11 -12
leaf_value=-0.0078612841562155471 0.0031149788835178557 0.012864019568685457 -0.0016242958454477957 0.012837837057703888 0.048463552877907767 0.046034947210887779 -0.010212047129181478 -0.0001869071515142088 0.017062557444244387 0.12149262172845107 0.022625649874052575
leaf_count=25580 2129 2278 19053 2392 214 99 51 6393 1390 30 4254
internal_value=0 1.09159 -0.517124 0.558428 2.02771 1.51629 4.43448 0.300069 0.867705 6.55696 1.92687
internal_count=63863 19230 44633 12484 6746 2572 180 9912 3519 129 6532
shrinkage=0.01


Tree=6
num_leaves=12
num_cat=0
split_feature=2 0 0 2 2 3 2 3 0 2 0
split_gain=631.608 173.259 74.7553 55.4106 34.0656 32.2955 30.7256 37.7767 29.4392 25.6945 22.4878
threshold=0.03500000000000001 0.070756630824372765 1.0000000180025095e-35 0.21500000000000002 0.81500000000000006 0.16025641025641027 0.99500000000000011 0.30128205128205138 -0.091197491039426509 0.095000000000000015 -1.0000000180025095e-35
decision_type=2 2 2 2 2 2 2 2 2 2 2
left_child=2 3 -1 5 9 8 -5 10 -2 -3 -8
right_child=1 4 -4 6 -6 -7 7 -9 -10 -11 -12
leaf_value=-0.0078422015133764577 0.0030745593284893973 0.012578305201930033 -0.0016105841395492077 0.01255296247667342 0.045799557064478781 -0.00018507138659683883 0.043597695495026997 -0.010209893906059546 0.016615929305757664 0.021916350196653975 0.10710346109685392
leaf_count=25580 2129 2278 19053 2392 214 6393 99 51 1390 4254 30
internal_value=0 1.06924 -0.514528 0.549802 1.96853 0.296187 1.4791 4.20272 0.851819 1.87247 6.09215
internal_count=63863 19230 44633 12484 6746 9912 2572 180 3519 6532 129
shrinkage=0.01


Tree=7
num_leaves=12
num_cat=0
split_feature=1 1 1 2 2 1 3 2 2 3 3
split_gain=1233.91 313.356 132.882 105.777 67.631 52.0235 37.783 36.6458 36.5988 32.8758 30.7229
threshold=0.10714285714285716 0.035714285714285719 0.17857142857142858 0.095000000000000015 0.21500000000000002 0.059523809523809527 0.19871794871794876 0.74500000000000011 0.99500000000000011 0.1730769230769231 0.083333333333333356
decision_type=2 2 2 2 2 2 2 2 2 2 2
left_child=1 3 -2 10 9 -3 7 -7 -6 -4 -1
right_child=2 5 4 -5 8 6 -8 -9 -10 -11 -12
leaf_value=-0.0022806165855038529 0.032801224880330264 0.0051148167156383007 0.090569631956022828 0.0034708741591029163 0.037677703866201333 0.020341021079995483 0.0078583362574287489 0.068329003153701134 0.10606921972073753 0.058144413217020734 -0.0071531809488417728
leaf_count=9273 1538 5439 316 7134 351 2096 1668 74 29 211 35734
internal_value=0 -0.240327 4.55221 -0.474574 6.40159 0.977361 1.6074 2.21779 4.37862 7.85394 -0.614301
internal_count=63863 61418 2445 52141 907 9277 3838 2170 380 527 45007
shrinkage=0.01


Tree=8
num_leaves=12
num_cat=0
split_feature=1 1 2 1 2 1 3 2 2 3 2
split_gain=1176.85 305.514 159.064 59.3932 55.3513 35.8593 35.409 32.2514 29.9606 29.8737 26.5095
threshold=0.059523809523809527 0.17857142857142858 0.085000000000000006 0.10714285714285716 0.21500000000000002 0.035714285714285719 0.19871794871794876 0.74500000000000011 0.99500000000000011 0.083333333333333356 0.45500000000000007
decision_type=2 2 2 2 2 2 2 2 2 2 2
left_child=2 3 5 6 -3 9 7 -2 -6 -1 -5
right_child=1 4 -4 10 8 -7 -8 -9 -10 -11 -12
leaf_value=-0.0023296583618241098 0.019746656119450569 0.072160237203225466 0.004843198383970803 0.028677823184638466 0.035986243044664697 0.00139420648071497 0.0077209633040528853 0.063363478865147663 0.095043476308112537 -0.0071766496774809153 0.058990926798827462
leaf_count=9143 2096 527 9397 1403 351 3701 1668 74 29 35339 135
internal_value=0 2.76274 -0.373988 2.05804 5.96209 -0.555762 1.56676 2.14909 4.15741 -0.617071 3.14672
internal_count=63863 6283 57580 5376 907 48183 3838 2170 380 44482 1538
shrinkage=0.01


Tree=9
num_leaves=12
num_cat=0
split_feature=1 1 2 1 2 1 3 3 2 2 3
split_gain=1127.11 270.016 156.575 54.5318 45.9361 35.4997 33.2266 29.7278 28.5701 25.9231 24.2833
threshold=0.059523809523809527 0.17857142857142858 0.085000000000000006 0.10714285714285716 0.21500000000000002 0.035714285714285719 0.19871794871794876 0.083333333333333356 0.74500000000000011 0.71500000000000008 0.1730769230769231
decision_type=2 2 2 2 2 2 2 2 2 2 2
left_child=2 3 5 6 10 7 8 -1 -2 -6 -3
right_child=1 4 -4 -5 9 -7 -8 -9 -10 -11 -12
leaf_value=-0.0023115743744349603 0.019180953215392087 0.076216370340538339 0.0047723860166546594 0.030226325818080546 0.031291640443718738 0.0013784046278765482 0.0075870155440033076 -0.0071544981544355733 0.059050657987094309 0.06961204211364104 0.050159574626373521
leaf_count=9143 2096 316 9397 1538 308 3701 1668 35339 74 72 211
internal_value=0 2.66326 -0.371601 1.9974 5.57781 -0.553179 1.52777 -0.614568 2.08396 3.95634 6.67268
internal_count=63863 6283 57580 5376 907 48183 3838 44482 2170 380 527
shrinkage=0.01


Tree=10
num_leaves=12
num_cat=0
split_feature=1 1 2 3 2 1 2 1 2 1 3
split_gain=1115.99 249.832 163.42 36.9424 34.4032 35.7772 31.8183 28.4798 31.5687 28.0902 22.901
threshold=0.059523809523809527 0.15476190476190479 0.095000000000000015 0.083333333333333356 0.115 0.48809523809523819 0.96500000000000008 0.20238095238095241 0.095000000000000015 0.10714285714285716 0.51923076923076927
decision_type=2 2 2 2 2 2 2 2 2 2 2
left_child=2 9 3 -1 7 -6 -4 -3 -9 10 -2
right_child=1 4 6 -5 5 -7 -8 8 -10 -11 -12
leaf_value=-0.0014846142884209291 0.01678748705475842 0.04888297994511695 0.0045850252276994673 -0.0065746260119520922 0.041245125790342882 0.1120961211239643 0.031331939721576225 0.066985708247278966 0.12410542769005949 0.02724418632337855 -0.010201416545986827
leaf_count=10310 3649 183 8561 38544 840 20 213 107 40 1226 170
internal_value=0 2.62938 -0.368785 -0.548024 4.96974 4.33615 0.531178 6.54395 8.2817 1.87492 1.56587
internal_count=63863 6235 57628 48854 1190 860 8774 330 147 5045 3819
shrinkage=0.01


Tree=11
num_leaves=12
num_cat=0
split_feature=1 1 0 0 0 1 3 1 3 3 1
split_gain=1070.26 223.752 109.695 61.4729 41.3977 36.3946 25.3693 22.7844 25.7642 19.9685 17.2914
threshold=0.059523809523809527 0.15476190476190479 0.038261827956989257 1.0000000180025095e-35 -0.29179731182795693 0.035714285714285719 0.16025641025641027 0.25000000000000006 0.39102564102564108 0.14743589743589747 0.10714285714285716
decision_type=2 2 2 2 2 2 2 2 2 2 2
left_child=2 3 -1 10 9 6 -4 -6 -9 -3 -2
right_child=1 4 5 -5 7 -7 -8 8 -10 -11 -12
leaf_value=-0.0062465681187397551 0.005946407168798966 0.045245082671833484 0.002349592599606059 0.024677065296044111 0.044591791317581578 0.008667284219908122 -0.0031652592966585342 0.058080313916067966 0.11765197330867511 -0.0019122162624532881 0.02007760294110137
leaf_count=36290 1725 50 8589 2823 724 2472 10277 303 27 86 497
internal_value=0 2.53834 -0.366414 1.823 4.69445 0.0543648 -0.062326 5.0627 6.23097 1.58382 0.947683
internal_count=63863 6235 57628 5045 1190 21338 18866 1054 330 136 2222
shrinkage=0.01


Tree=12
num_leaves=12
num_cat=0
split_feature=2 0 0 2 2 2 2 2 3 0 0
split_gain=573.172 173.654 59.5691 46.8281 36.1153 32.3268 24.6485 25.255 20.413 19.8152 19.0642
threshold=0.03500000000000001 0.038261827956989257 0.038261827956989257 0.22500000000000003 0.085000000000000006 0.055000000000000007 0.81500000000000006 0.84500000000000008 0.16025641025641027 -0.091197491039426509 -0.29179731182795693
decision_type=2 2 2 2 2 2 2 2 2 2 2
left_child=2 3 -1 8 5 -3 -6 -8 9 -2 -5
right_child=1 4 -4 10 6 -7 7 -9 -10 -11 -12
leaf_value=-0.0071764543103765869 0.0021020335376076959 0.017907089510909142 -0.0013854837910569056 0.0011670954905899948 0.018698750100365792 0.0021713884269172986 0.0975913362994104 0.031991922142289693 -0.0015276267505730662 0.014890634702058814 0.016652833417512253
leaf_count=28666 2136 1254 15991 511 5726 1337 24 231 5603 839 1545
internal_value=0 0.984624 -0.504924 0.35513 1.69157 0.988144 1.9709 3.82539 0.111142 0.584201 1.28494
internal_count=63863 19206 44657 10634 8572 2591 5981 255 8578 2975 2056
shrinkage=0.01


Tree=13
num_leaves=12
num_cat=0
split_feature=1 1 2 0 0 0 0 2 0 1 1
split_gain=1012.49 196.609 156.744 54.9986 54.9788 51.017 34.7926 23.1566 23.6768 25.0409 22.9669
threshold=0.059523809523809527 0.15476190476190479 0.095000000000000015 1.0000000180025095e-35 -0.091197491039426509 0.038261827956989257 -0.29179731182795693 0.10500000000000002 0.070756630824372765 0.20238095238095241 0.48809523809523819
decision_type=2 2 2 2 2 2 2 2 2 2 2
left_child=2 4 5 -4 -2 -1 -3 8 9 -8 -9
right_child=1 6 3 -5 -6 -7 7 10 -10 -11 -12
leaf_value=-0.0073161721346967591 0.0071641399692083446 0.015439036513609622 -0.00066342593162806998 0.010696904664864924 0.02228017230667512 -0.0021960510415708037 0.021999330766358183 0.040035152015782532 0.074308345101354825 0.070611618770211812 0.092148531411358828
leaf_count=31267 1677 136 4487 4287 3368 17587 87 751 142 54 20
internal_value=0 2.42309 -0.363209 0.510451 1.75298 -0.541787 4.38074 4.70163 6.01606 4.28003 4.18854
internal_count=63863 6235 57628 8774 5045 48854 1190 1054 283 141 771
shrinkage=0.01


Tree=14
num_leaves=12
num_cat=0
split_feature=1 1 0 0 1 1 0 3 3 3 3
split_gain=973.001 178.668 105.497 54.2251 34.4205 32.6305 29.8329 24.7013 17.6386 17.8986 15.9272
threshold=0.059523809523809527 0.13095238095238099 0.038261827956989257 -0.091197491039426509 0.035714285714285719 0.25000000000000006 0.070756630824372765 0.16025641025641027 0.096153846153846159 0.33974358974358976 0.31410256410256415
decision_type=2 2 2 2 2 2 2 2 2 2 2
left_child=2 3 -1 -2 7 6 -3 -4 -8 -10 -5
right_child=1 5 4 10 -6 -7 8 -9 9 -11 -12
leaf_value=-0.0061786682853906582 0.0048720460171023982 0.025375257692564476 0.0022700129971550266 0.022859619419128393 0.0083093768385702257 0.051850789130360612 0.03505603332562001 -0.0031630434807754051 0.063387394015529508 0.026000527278263432 0.010270863262368394
leaf_count=36290 1532 719 8589 2459 2472 365 355 10277 180 55 570
internal_value=0 2.34414 -0.360857 1.56813 0.0491492 3.84557 3.37936 -0.0649851 4.29364 5.49828 2.06435
internal_count=63863 6235 57628 4561 21338 1674 1309 18866 590 235 3029
shrinkage=0.01


Tree=15
num_leaves=12
num_cat=0
split_feature=2 0 2 0 2 3 2 0 2 3 2
split_gain=531.107 116.73 64.8351 64.5661 38.7347 32.3451 27.0331 19.9793 16.0987 17.4206 15.3024
threshold=0.03500000000000001 1.0000000180025095e-35 0.81500000000000006 0.038261827956989257 0.83500000000000008 0.22435897435897442 0.095000000000000015 -0.19484569892473116 0.81500000000000006 0.14743589743589747 0.99500000000000011
decision_type=2 2 2 2 2 2 2 2 2 2 2
left_child=3 5 6 -1 -4 7 -3 8 -2 -10 -6
right_child=1 2 4 -5 10 -7 -8 -9 9 -11 -12
leaf_value=-0.0072498214275384977 0.0022562599378739686 0.0080681008223176861 0.11790986529957068 -0.0011916335820851254 0.013203852517596553 -0.00096125995600006709 0.015766077024210543 0.012154547089608453 0.0681023579104338 -0.01024111402012833 0.045014306818399644
leaf_count=28739 2603 3342 20 15912 76 4592 6054 2287 34 20 184
internal_value=0 0.924979 1.42933 -0.500949 4.22417 0.34552 1.3207 0.739548 0.312168 3.90655 3.58348
internal_count=63863 19212 9676 44651 280 9536 9396 4944 2657 54 260
shrinkage=0.01


Tree=16
num_leaves=12
num_cat=0
split_feature=1 1 0 1 0 1 1 3 3 3 0
split_gain=976.847 123.142 91.0867 41.9569 34.9213 34.7849 22.3366 19.303 17.3965 17.1177 16.2324
threshold=0.059523809523809527 0.10714285714285716 0.038261827956989257 0.035714285714285719 -0.19484569892473116 0.25000000000000006 0.035714285714285719 0.51923076923076927 0.37820512820512825 0.19871794871794876 1.0000000180025095e-35
decision_type=2 2 2 2 2 2 2 2 2 2 2
left_child=2 4 6 9 -2 10 -1 -6 -7 -4 -3
right_child=1 5 3 -5 7 8 -8 -9 -10 -11 -12
leaf_value=-0.0067267780383570945 0.002467072405413261 0.022359200629341294 0.00077705022751477552 0.0087031087299915162 0.019199631324578623 0.042513251276944712 1.4271118074644494e-05 -0.010214748130352627 0.078880115556962324 -0.0037762061859023216 0.033142669724606
leaf_count=33410 895 844 10568 2436 2758 345 2993 113 41 8253 1207
internal_value=0 2.30806 -0.373004 0.00741123 1.47386 3.24621 -0.613202 1.81553 4.60319 -0.118617 2.90008
internal_count=63863 6203 57660 21257 3766 2437 36403 2871 386 18821 2051
shrinkage=0.01


Tree=17
num_leaves=12
num_cat=0
split_feature=1 2 1 0 0 0 1 2 2 0 1
split_gain=940.03 140.667 113.019 46.8154 42.9179 33.0835 30.9126 22.0599 21.5365 25 18.8416
threshold=0.059523809523809527 0.095000000000000015 0.10714285714285716 0.038261827956989257 -0.19484569892473116 -0.19484569892473116 0.25000000000000006 0.81500000000000006 0.12500000000000003 1.0000000180025095e-35 0.035714285714285719
decision_type=2 2 2 2 2 2 2 2 2 2 2
left_child=1 3 5 -1 -3 -2 8 10 9 -4 -6
right_child=2 4 6 -5 7 -7 -8 -9 -10 -11 -12
leaf_value=-0.0072721665699513171 0.0024366050164153848 -0.0040234443099393695 0.022814385678514428 -0.0023385462481639507 0.0045194629398875854 0.01766372818912814 0.043680915568493718 0.026709548928153401 0.02283290397634468 0.042962063315276605 0.014130138003185284
leaf_count=31402 895 2378 385 17509 4900 2871 386 241 1164 502 1230
internal_value=0 -0.37062 2.23557 -0.542697 0.45239 1.4386 3.11746 0.744725 2.79366 3.48959 0.655245
internal_count=63863 57660 6203 48911 8749 3766 2437 6371 2051 887 6130
shrinkage=0.01


Tree=18
num_leaves=12
num_cat=0
split_feature=1 2 1 2 3 1 2 1 2 3 3
split_gain=905.247 138.481 103.979 32.621 28.6951 27.6259 27.3379 22.7756 19.4533 18.6343 15.082
threshold=0.059523809523809527 0.095000000000000015 0.10714285714285716 0.81500000000000006 0.096153846153846159 0.25000000000000006 0.74500000000000011 0.035714285714285719 0.12500000000000003 0.51923076923076927 0.16025641025641027
decision_type=2 2 2 2 2 2 2 2 2 2 2
left_child=1 4 6 -3 -1 8 9 -6 -4 -2 -8
right_child=2 3 5 -5 7 -7 10 -9 -10 -11 -12
leaf_value=-0.0020454226239835531 0.013909513147140069 0.0035405452285906243 0.033430265038165555 0.025049573275182976 -0.0070025673532020964 0.041550302308064016 0.059485004250002298 0.00013913076577232322 0.022124227369545047 -0.010209476538664839 0.014683682138064648
leaf_count=11279 3489 8433 887 316 34943 386 63 2689 1164 167 47
internal_value=0 -0.368249 2.16695 0.445891 -0.54011 2.99765 1.40471 -0.644749 2.69388 1.29326 4.26933
internal_count=63863 57660 6203 8749 48911 2437 3766 37632 2051 3656 110
shrinkage=0.01


Tree=19
num_leaves=12
num_cat=0
split_feature=1 2 1 2 3 2 1 1 3 2 1
split_gain=872.329 136.335 95.8894 30.9719 28.5065 25.0745 24.8029 22.6129 17.9778 17.7636 15.8658
threshold=0.059523809523809527 0.095000000000000015 0.10714285714285716 0.81500000000000006 0.096153846153846159 0.74500000000000011 0.25000000000000006 0.035714285714285719 0.51923076923076927 0.025000000000000005 0.13095238095238099
decision_type=2 2 2 2 2 2 2 2 2 2 2
left_child=1 4 5 -3 -1 8 9 -6 -2 10 -4
right_child=2 3 6 -5 7 -7 -8 -9 -10 -11 -12
leaf_value=-0.0020289890219151456 0.013588213763793244 0.0034931893480992238 0.024813736590798396 0.024212554774904228 -0.0069798642213732146 0.040597469600463162 0.039606858773394538 0.00013772126909383014 -0.010207349244068612 0.02447261952289545 0.060723827267217735
leaf_count=11279 3489 8433 88 316 34943 110 386 2689 167 1881 82
internal_value=0 -0.365882 2.10189 0.439529 -0.537523 1.37205 2.88589 -0.642313 1.26455 2.60026 4.41919
internal_count=63863 57660 6203 8749 48911 3766 2437 37632 3656 2051 170
shrinkage=0.01


Tree=20
num_leaves=12
num_cat=0
split_feature=2 0 0 2 3 2 3 0 3 2 0
split_gain=485.449 129.071 62.8415 35.8022 30.8874 29.4077 26.8324 26.8041 20.3993 18.6774 12.6526
threshold=0.03500000000000001 1.0000000180025095e-35 1.0000000180025095e-35 0.81500000000000006 0.22435897435897442 0.22500000000000003 0.10897435897435899 -0.29179731182795693 0.1730769230769231 0.23500000000000001 0.070756630824372765
decision_type=2 2 2 2 2 2 2 2 2 2 2
left_child=2 4 -1 8 5 -2 -4 -7 -3 -9 -10
right_child=1 3 6 -5 -6 7 -8 9 10 -11 -12
leaf_value=-0.0074013586805347781 0.0036277794013125407 0.015668318737913824 0.0025025072653430381 0.033240808682915575 -0.0016778755714235438 -0.0015822159131024238 -0.0035592612812235212 0.073520159711876393 0.0048175098014408037 0.021237058607315978 0.012500692817233967
leaf_count=25686 4001 5180 6117 279 4569 264 12953 30 1755 645 2384
internal_value=0 0.874084 -0.4801 1.38894 0.265444 0.64316 -0.153918 1.68329 1.30603 2.36311 0.940471
internal_count=63863 19107 44756 9598 9509 4940 19070 939 9319 675 4139
shrinkage=0.01


Tree=21
num_leaves=12
num_cat=0
split_feature=1 2 1 0 0 0 2 2 1 0 2
split_gain=772.27 143.061 123.66 52.1806 49.6131 43.6743 28.6975 31.6745 28.6846 20.6867 18.3408
threshold=0.059523809523809527 0.085000000000000006 0.13095238095238099 1.0000000180025095e-35 1.0000000180025095e-35 -0.091197491039426509 0.22500000000000003 0.23500000000000001 0.035714285714285719 -0.29179731182795693 0.12500000000000003
decision_type=2 2 2 2 2 2 2 2 2 2 2
left_child=1 4 5 6 -1 -2 -3 -8 -6 -9 -4
right_child=2 3 10 -5 8 -7 7 9 -10 -11 -12
leaf_value=-0.0074636640085256533 0.0037790232027595256 -0.0043945968985319404 0.038042774873690191 0.009677157593921409 -0.0033775471483508653 0.017487990187820365 0.073857704880153016 -0.0087037250975518145 0.0061822012538378006 0.011959009793904863 0.0267695097510369
leaf_count=27661 1534 3579 615 4493 18896 2964 36 350 1812 883 1040
internal_value=0 -0.337606 1.96661 0.451913 -0.52212 1.32763 -0.0918881 0.819858 -0.244179 0.626848 3.10006
internal_count=63863 57710 6153 9341 48369 4498 4848 1269 20708 1233 1655
shrinkage=0.01


Tree=22
num_leaves=12
num_cat=0
split_feature=1 2 1 3 2 1 2 3 3 2 3
split_gain=745.368 140.763 114.294 40.9538 34.4677 28.2038 27.9005 27.149 21.6124 16.4501 38.1225
threshold=0.059523809523809527 0.085000000000000006 0.13095238095238099 0.083333333333333356 0.22500000000000003 0.035714285714285719 0.03500000000000001 0.39102564102564108 0.35256410256410259 0.12500000000000003 0.48076923076923089
decision_type=2 2 2 2 2 2 2 2 2 2 2
left_child=1 3 7 6 -3 -5 -1 -2 -6 10 -4
right_child=2 4 9 5 8 -7 -8 -9 -10 -11 -12
leaf_value=-0.0024132618469114532 0.014938764575186763 0.0016864295752038738 0.033862466611397836 -0.0070243659537246698 0.014508990987615022 0.00090582053364817046 0.009741347883103952 0.00045504309959211767 -0.00051187977594141412 0.025854880076645763 0.099991963466060207
leaf_count=9027 3818 6744 588 35495 1986 2715 1132 680 611 1040 27
internal_value=0 -0.335345 1.91135 -0.519532 0.44541 -0.640012 -0.0903393 1.29781 1.11195 2.98257 3.63673
internal_count=63863 57710 6153 48369 9341 38210 10159 4498 2597 1655 615
shrinkage=0.01


Tree=23
num_leaves=12
num_cat=0
split_feature=1 1 0 1 0 3 1 1 3 3 3
split_gain=719.77 105.844 101.118 60.5827 40.7811 31.3517 16.7706 15.0248 12.8264 50.7528 12.1464
threshold=0.059523809523809527 0.13095238095238099 1.0000000180025095e-35 0.035714285714285719 -0.091197491039426509 0.16025641025641027 0.035714285714285719 0.51190476190476197 0.1730769230769231 0.13461538461538464 0.39102564102564108
decision_type=2 2 2 2 2 2 2 2 2 2 2
left_child=2 4 6 5 -2 -4 -1 8 9 -3 -10
right_child=1 7 3 -5 -6 -7 -8 -9 10 -11 -12
leaf_value=-0.0068674786542486099 0.0035632751922009603 0.026823745564103958 0.0019153019788091051 0.0097848481271384184 0.016681905630325497 -0.0037711586817136145 -0.0006062719855208595 0.057576164957844192 0.01780200583532825 0.05931975254423965 0.034258172154512059
leaf_count=29868 1534 842 9626 2768 2964 12807 2641 28 476 139 170
internal_value=0 1.85864 -0.333089 0.0150086 1.26903 -0.124787 -0.630819 2.87271 2.79269 3.13741 2.20514
internal_count=63863 6153 57710 25201 4498 22433 32509 1655 1627 981 646
shrinkage=0.01


Tree=24
num_leaves=12
num_cat=0
split_feature=1 2 1 2 3 3 1 3 3 2 3
split_gain=695.405 138.554 98.223 47.1363 29.22 25.4768 24.72 21.419 20.5609 14.9576 16.2171
threshold=0.059523809523809527 0.03500000000000001 0.13095238095238099 0.22500000000000003 0.10897435897435899 0.39102564102564108 0.035714285714285719 0.083333333333333356 0.35256410256410259 0.39500000000000007 0.32692307692307693
decision_type=2 2 2 2 2 2 2 2 2 2 2
left_child=1 6 5 4 -3 -2 7 -1 9 10 -5
right_child=2 3 -4 8 -6 -7 -8 -9 -10 -11 -12
leaf_value=-0.0027271928994151225 0.014274446923234081 0.0060554370181556032 0.027700131617665151 0.021540858366110371 -0.0018066097840907271 0.0003352099431609114 0.0011133767739231605 -0.007166263071583143 -0.00046637722104924756 0.010572005348335965 0.084727856405023269
leaf_count=8312 3818 3432 1655 528 8351 680 2782 32236 611 1438 20
internal_value=0 -0.330836 1.80836 0.2667 0.0609618 1.24125 -0.569258 -0.621506 1.09268 1.41895 2.38056
internal_count=63863 57710 6153 14380 11783 4498 43330 40548 2597 1986 548
shrinkage=0.01


Tree=25
num_leaves=12
num_cat=0
split_feature=1 2 1 0 0 2 0 1 1 2 2
split_gain=654.422 116.852 69.6614 46.24 40.1745 30.3711 25.7194 16.7425 16.3924 15.9892 15.9079
threshold=0.059523809523809527 0.095000000000000015 0.15476190476190479 0.038261827956989257 -0.29179731182795693 0.95500000000000007 -0.19484569892473116 0.13095238095238099 0.035714285714285719 0.22500000000000003 0.025000000000000005
decision_type=2 2 2 2 2 2 2 2 2 2 2
left_child=1 3 6 -1 -3 9 7 -2 -5 -6 -4
right_child=2 4 10 8 5 -7 -8 -9 -10 -11 -12
leaf_value=-0.0070033123826250907 0.0014509536096923548 -0.0078086661982073972 0.052918620633623188 -0.0028339724648780251 0.0028278270262861172 0.030228520812260073 0.015321380172024434 0.02825376663392801 0.0047192902288247483 0.010013381689957268 0.025498408693352702
leaf_count=31382 1037 1372 46 15964 5086 185 3838 85 1625 2072 1171
internal_value=0 -0.346998 1.70808 -0.510895 0.388622 0.58315 1.31197 0.415499 -0.202929 0.500931 2.66156
internal_count=63863 57686 6177 48971 8715 7343 4960 1122 17589 7158 1217
shrinkage=0.01


Tree=26
num_leaves=12
num_cat=0
split_feature=1 2 1 3 2 3 1 2 3 2 2
split_gain=633.427 115.045 64.9049 39.1038 27.3906 23.6599 23.504 22.7279 18.8985 15.7264 14.6022
threshold=0.059523809523809527 0.095000000000000015 0.15476190476190479 0.083333333333333356 0.22500000000000003 0.22435897435897442 0.035714285714285719 0.03500000000000001 0.12179487179487182 0.95500000000000007 0.39500000000000007
decision_type=2 2 2 2 2 2 2 2 2 2 2
left_child=1 3 5 7 -3 8 -5 -1 -2 -6 -10
right_child=2 4 -4 6 9 -7 -8 -9 10 -11 -12
leaf_value=-0.0023755556259395976 0.012634960319389934 0.0011422453012288651 0.025721577081378511 -0.0068499751149107037 0.0078299329846902906 0.0069218109352383378 0.00034559826644385528 0.0079636263981048144 0.0249311587119041 0.025502464692999171 0.00062118659280014092
leaf_count=8999 2077 6115 1217 35950 2392 1826 2742 1280 969 208 88
internal_value=0 -0.344703 1.66434 -0.508309 0.383276 1.28278 -0.627134 -0.0910509 1.58644 0.957628 2.25808
internal_count=63863 57686 6177 48971 8715 4960 38692 10279 3134 2600 1057
shrinkage=0.01


Tree=27
num_leaves=12
num_cat=0
split_feature=2 0 0 3 2 2 2 2 0 3 3
split_gain=391.973 81.0859 58.0932 57.4249 24.0439 22.7492 22.059 16.3251 22.3813 13.5287 29.0662
threshold=0.03500000000000001 -0.19484569892473116 1.0000000180025095e-35 0.22435897435897442 0.20500000000000004 0.36500000000000005 1.0000000180025095e-35 0.81500000000000006 -0.29179731182795693 0.14743589743589747 0.1730769230769231
decision_type=2 2 2 2 2 2 2 2 2 2 2
left_child=2 7 -1 4 -3 -5 -4 -2 -9 -6 -11
right_child=1 3 6 5 9 -7 -8 8 -10 10 -12
leaf_value=-0.0072940375599678574 -0.0012233501221260506 0.01057849017871576 -0.0030681356462956707 0.0020404060169799303 0.015414267842863387 0.014169348913350728 0.0029900742297023488 -0.0031575065549806864 0.055453194216318849 0.047516936148008504 0.016713101310074974
leaf_count=25580 4948 6524 14602 4604 1690 748 4541 56 48 157 365
internal_value=0 0.731812 -0.471454 0.968674 1.26976 0.397607 -0.158071 -0.0563217 2.40746 1.7886 2.65169
internal_count=63863 19140 44723 14088 8736 5352 19143 5052 104 2212 522
shrinkage=0.01


Tree=28
num_leaves=12
num_cat=0
split_feature=1 2 1 0 0 0 2 1 2 2 0
split_gain=605.592 110.769 59.7832 45.6919 38.3097 31.7666 26.2045 15.7434 15.0519 14.2647 14.7441
threshold=0.059523809523809527 0.095000000000000015 0.13095238095238099 0.038261827956989257 -0.29179731182795693 -0.29179731182795693 0.95500000000000007 0.035714285714285719 0.64500000000000013 0.22500000000000003 1.0000000180025095e-35
decision_type=2 2 2 2 2 2 2 2 2 2 2
left_child=1 3 5 -1 -3 -2 9 -5 -7 10 -6
right_child=2 4 -4 7 6 8 -8 -9 -10 -11 -12
leaf_value=-0.0069450721578768583 -0.0032193083891441771 -0.0077942016924283835 0.023122715453753936 -0.0027713362519144811 -0.0020161828731952726 0.012536654222988108 0.0273764778778957 0.0046103892326394566 0.029072745317972597 0.0094035608652625249 0.0057338796962571317
leaf_count=31382 571 1372 1693 15964 2181 3744 185 1625 169 2072 2905
internal_value=0 -0.34144 1.6063 -0.50392 0.367724 1.1639 0.554087 -0.197396 1.34558 0.476237 0.26975
internal_count=63863 57686 6177 48971 8715 4484 7343 17589 3913 7158 5086
shrinkage=0.01


Tree=29
num_leaves=12
num_cat=0
split_feature=1 2 1 3 2 1 2 3 3 2 2
split_gain=586.718 109.065 56.0836 38.8602 24.7351 23.3104 21.5703 21.3012 14.8728 14.4374 17.6218
threshold=0.059523809523809527 0.095000000000000015 0.15476190476190479 0.083333333333333356 0.22500000000000003 0.035714285714285719 0.03500000000000001 0.53205128205128216 0.23717948717948725 0.96500000000000008 0.44500000000000006
decision_type=2 2 2 2 2 2 2 2 2 2 2
left_child=1 3 7 6 -3 -5 -1 -2 9 10 -6
right_child=2 4 -4 5 8 -7 -8 -9 -10 -11 -12
leaf_value=-0.0022913331599214997 0.012845214441435153 0.0010599489627250512 0.023863590194709915 -0.0067943591039338206 0.016941491713322369 0.00038977800333738893 0.007734773042288757 -0.010247489467906925 0.002225142145883958 0.030253942825386015 0.0022415164546615417
leaf_count=8999 4777 6115 1217 35950 837 2742 1280 183 982 140 641
internal_value=0 -0.339165 1.56673 -0.501336 0.36274 -0.621037 -0.0842325 1.21451 0.898482 1.27614 1.05533
internal_count=63863 57686 6177 48971 8715 38692 10279 4960 2600 1618 1478
shrinkage=0.01


Tree=30
num_leaves=12
num_cat=0
split_feature=1 2 1 2 3 1 3 2 1 2 1
split_gain=662.313 104.264 88.1241 32.6428 26.1784 21.4276 18.0537 15.8439 15.5644 18.4446 16.5876
threshold=0.059523809523809527 0.03500000000000001 0.10714285714285716 0.74500000000000011 0.10897435897435899 0.035714285714285719 0.083333333333333356 0.10500000000000002 0.41666666666666674 0.12500000000000003 0.15476190476190479
decision_type=2 2 2 2 2 2 2 2 2 2 2
left_child=1 5 3 -2 -3 6 -1 -6 9 10 -4
right_child=2 4 8 -5 7 -7 -8 -9 -10 -11 -12
leaf_value=-0.0028304804671528535 0.0086930364914606893 0.0061049136563010708 0.02120933330022981 0.036265319594914074 -0.0032632293341993417 0.00078406776226878352 -0.0069631466706464255 0.0024946525640971956 0.041201454551141763 0.018774774305242742 0.034343562046994916
leaf_count=8274 3684 4307 595 123 5459 2786 32166 4631 70 1394 374
internal_value=0 -0.342763 1.664 0.994762 0.167839 -0.556716 -0.606878 -0.0420059 2.32668 2.23976 2.7744
internal_count=63863 57623 6240 3807 14397 43226 40440 10090 2433 2363 969
shrinkage=0.01


Tree=31
num_leaves=12
num_cat=0
split_feature=1 2 1 2 3 1 3 2 3 1 2
split_gain=641.249 102.919 82.5945 30.403 25.4763 21.2243 17.9702 15.5467 14.6123 14.1985 16.9794
threshold=0.059523809523809527 0.03500000000000001 0.10714285714285716 0.74500000000000011 0.10897435897435899 0.035714285714285719 0.083333333333333356 0.10500000000000002 0.19871794871794876 0.41666666666666674 0.12500000000000003
decision_type=2 2 2 2 2 2 2 2 2 2 2
left_child=1 5 3 8 -3 6 -1 -6 -2 10 -4
right_child=2 4 9 -5 7 -7 -8 -9 -10 -11 -12
leaf_value=-0.0028098932971236629 0.011764561669686377 0.0060085141593693783 0.026782878839730042 0.034720319464701749 -0.0032408223004140742 0.00077563779761297342 -0.0069404305607874677 0.0024637831998938604 0.0037794736321760448 0.03937959744412943 0.01827067301302587
leaf_count=8274 2068 4307 969 123 5459 2786 32166 4631 1616 70 1394
internal_value=0 -0.34048 1.62229 0.975558 0.165886 -0.554147 -0.604371 -0.0416069 0.853526 2.25528 2.17253
internal_count=63863 57623 6240 3807 14397 43226 40440 10090 3684 2433 2363
shrinkage=0.01


Tree=32
num_leaves=12
num_cat=0
split_feature=2 0 0 3 2 3 2 2 0 2 2
split_gain=364.421 89.4699 75.8227 34.1022 29.0206 19.0549 17.6238 25.772 13.8633 19.65 10.743
threshold=0.03500000000000001 0.070756630824372765 1.0000000180025095e-35 0.16025641025641027 0.81500000000000006 0.1730769230769231 0.25500000000000006 0.26500000000000007 -0.19484569892473116 0.055000000000000007 0.17500000000000002
decision_type=2 2 2 2 2 2 2 2 2 2 2
left_child=2 3 -1 4 8 -4 -5 -8 -2 -10 -3
right_child=1 10 5 6 -6 -7 7 -9 9 -11 -12
leaf_value=-0.0074702990342038981 0.0019929129431553606 0.010500330315173143 0.0016488580033112402 -0.0010982309198532454 0.03314161385975533 -0.0032406518146166105 0.062095508284013654 0.0056301014810371764 0.024597792123105481 0.0075500522904150295 0.015468818060388929
leaf_count=25568 1790 4364 8865 6652 121 10232 32 1335 351 2189 2364
internal_value=0 0.705046 -0.447282 0.337072 0.788795 -0.0871946 0.055205 0.702729 0.677128 0.971518 1.24488
internal_count=63863 19198 44665 12470 4451 19097 8019 1367 4330 2540 6728
shrinkage=0.01


Tree=33
num_leaves=12
num_cat=0
split_feature=1 0 1 1 0 0 3 3 0 1 3
split_gain=613.429 89.1914 76.1766 31.8962 24.1934 21.8277 19.6164 23.1266 18.6526 19.7307 18.0029
threshold=0.059523809523809527 0.038261827956989257 0.10714285714285716 0.035714285714285719 -0.19484569892473116 0.070756630824372765 0.083333333333333356 0.1730769230769231 -0.19484569892473116 0.035714285714285719 0.10897435897435899
decision_type=2 2 2 2 2 2 2 2 2 2 2
left_child=1 8 4 10 -2 -4 -7 -8 -1 -10 -3
right_child=2 3 5 -5 -6 6 7 -9 9 -11 -12
leaf_value=-0.0077307048013570924 -0.00051425115158672838 0.0023126450024356753 0.0171795365786413 0.0075173021617888358 0.011872919849732788 0.021264176130535845 0.046657463323365116 0.025044598892184008 -0.0049756519627860282 0.0037768526573928539 -0.002564255826733679
leaf_count=18248 876 6390 1343 2463 2931 648 171 271 16500 1568 12454
internal_value=0 -0.337345 1.56698 0.0358983 0.947994 2.16455 2.63099 3.38951 -0.58971 -0.40964 -0.0807558
internal_count=63863 57623 6240 21307 3807 2433 1090 442 36316 18068 18844
shrinkage=0.01


Tree=34
num_leaves=12
num_cat=0
split_feature=1 2 1 2 3 1 3 2 3 2 1
split_gain=594.44 99.2144 71.6051 27.1976 23.787 20.8531 17.7803 15.0836 13.364 13.2409 15.2894
threshold=0.059523809523809527 0.03500000000000001 0.10714285714285716 0.74500000000000011 0.10897435897435899 0.035714285714285719 0.083333333333333356 0.10500000000000002 0.19871794871794876 0.025000000000000005 0.41666666666666674
decision_type=2 2 2 2 2 2 2 2 2 2 2
left_child=1 5 3 8 -3 6 -1 -6 -2 -4 -11
right_child=2 4 9 -5 7 -7 -8 -9 -10 10 -12
leaf_value=-0.0027567465836216332 0.011173930930259304 0.0057539407239031405 0.034405180274665478 0.032245823994090726 -0.0032144866047878985 0.00078407746713847471 -0.00688418235160393 0.0024030678421720565 0.0036060271227054035 0.019190594276262553 0.037138138992240464
leaf_count=8274 2068 4307 174 123 5459 2786 32166 4631 1616 2190 69
internal_value=0 -0.335079 1.52912 0.930119 0.159371 -0.547681 -0.598145 -0.0421041 0.813985 2.10132 2.00879
internal_count=63863 57623 6240 3807 14397 43226 40440 10090 3684 2433 2259
shrinkage=0.01


Tree=35
num_leaves=12
num_cat=0
split_feature=1 0 1 1 0 3 0 1 3 3 3
split_gain=575.127 83.4422 42.8073 39.9288 27.7834 20.7499 20.3467 25.1451 16.897 17.1872 11.8356
threshold=0.059523809523809527 0.038261827956989257 0.13095238095238099 0.035714285714285719 -0.091197491039426509 0.19871794871794876 -0.19484569892473116 0.035714285714285719 0.1730769230769231 0.14743589743589747 0.18589743589743593
decision_type=2 2 2 2 2 2 2 2 2 2 2
left_child=1 6 4 5 -2 -3 -1 10 9 -4 -8
right_child=2 3 8 -5 -6 -7 7 -9 -10 -11 -12
leaf_value=-0.0074821812446371205 0.0042544149191135732 0.0013377522422330984 0.022158075977343952 0.0085498394236494055 0.014442109273374039 -0.003774862902882255 -0.0018772553069912748 0.005236933144794881 0.014762749221233201 0.041296904080665532 -0.0063319675501063077
leaf_count=18219 1557 10613 924 2435 3026 8200 5987 1553 692 98 10559
internal_value=0 -0.309732 1.5076 0.0519262 1.14527 -0.0789218 -0.555251 -0.366875 2.06033 2.40216 -0.466561
internal_count=63863 57566 6297 21248 4583 18813 36318 18099 1714 1022 16546
shrinkage=0.01


Tree=36
num_leaves=12
num_cat=0
split_feature=1 2 0 1 0 0 2 0 1 2 1
split_gain=557.388 122.698 43.0093 40.2882 36.4778 26.4691 21.965 29.6855 20.706 17.191 16.6789
threshold=0.059523809523809527 0.03500000000000001 -0.19484569892473116 0.13095238095238099 1.0000000180025095e-35 -0.091197491039426509 0.03500000000000001 0.038261827956989257 0.035714285714285719 0.22500000000000003 0.48809523809523819
decision_type=2 2 2 2 2 2 2 2 2 2 2
left_child=1 4 -3 5 -1 -2 7 -5 -6 -4 -8
right_child=3 2 9 6 8 -7 10 -9 -10 -11 -12
leaf_value=-0.0076060720614992798 0.0041948194560263562 -0.0042972185524444203 0.0031625511661721728 0.012259723812750693 -0.0036772186132197145 0.014104841811153093 0.018021179554753561 0.060889998554060958 0.005703998990939616 0.010025953994945318 0.046741221474305858
leaf_count=24857 1557 4070 8368 48 16991 3026 1586 56 1326 1954 24
internal_value=0 -0.30757 0.241886 1.47205 -0.545914 1.12164 2.00261 4.00961 -0.285902 0.467808 1.87564
internal_count=63863 57566 14392 6297 43174 4583 1714 104 18317 10322 1610
shrinkage=0.01


Tree=37
num_leaves=12
num_cat=0
split_feature=2 0 0 2 3 3 2 3 0 2 2
split_gain=366.743 69.1446 61.2147 47.4549 30.2558 18.6239 14.7984 14.1531 13.0895 11.8593 9.30516
threshold=0.03500000000000001 -0.29179731182795693 1.0000000180025095e-35 0.81500000000000006 0.22435897435897442 0.1730769230769231 0.115 0.16025641025641027 0.070756630824372765 0.045000000000000005 0.085000000000000006
decision_type=2 2 2 2 2 2 2 2 2 2 2
left_child=2 -2 -1 4 9 -4 8 -5 -6 -3 -10
right_child=1 3 5 7 6 -7 -8 -9 10 -11 -12
leaf_value=-0.0071155418224616174 -0.0032803770755666416 0.016887939895733211 0.0013560848336753323 0.031646393638968762 -0.0024996902439374507 -0.0034909610614986082 0.0071317205023604746 0.013232053026155972 0.0018968728429881029 0.0092156128654669565 0.015948468246002094
leaf_count=25557 2811 923 8793 251 2369 10282 3016 200 580 8767 314
internal_value=0 0.713347 -0.436327 0.856327 0.783835 -0.113686 0.405025 2.45954 0.0543262 0.988287 0.725957
internal_count=63863 19231 44632 16420 15969 19075 6279 451 3263 9690 894
shrinkage=0.01


Tree=38
num_leaves=12
num_cat=0
split_feature=2 0 0 2 0 3 2 3 2 0 2
split_gain=358.434 67.1628 60.739 33.0587 20.7001 18.3115 17.1842 15.7828 14.1043 13.0396 12.3204
threshold=0.03500000000000001 -0.091197491039426509 1.0000000180025095e-35 0.81500000000000006 -0.29179731182795693 0.1730769230769231 0.21500000000000002 0.23717948717948725 0.085000000000000006 -1.0000000180025095e-35 0.49500000000000005
decision_type=2 2 2 2 2 2 2 2 2 2 2
left_child=2 4 -1 7 -2 -4 -6 10 -9 -5 -3
right_child=1 3 5 9 6 -7 -8 8 -10 -11 -12
leaf_value=-0.0070934207983877349 -0.0032578037130830033 0.011106898997422954 0.0013407647652773499 5.56459238372798e-06 0.0019750863407651622 -0.003467795318537401 0.011707730581902288 -0.00085321489222351667 0.0079503744679554622 0.028019590480568565 0.0016865926722517616
leaf_count=25557 2811 7112 8793 53 3657 10282 932 1291 2581 288 506
internal_value=0 0.701483 -0.433808 0.966631 0.159638 -0.112677 0.437272 0.894925 0.540849 2.43542 1.04387
internal_count=63863 19231 44632 11831 7400 19075 4589 11490 3872 341 7618
shrinkage=0.01


Tree=39
num_leaves=12
num_cat=0
split_feature=1 0 1 1 0 0 1 3 3 3 3
split_gain=526.682 79.3135 37.2214 36.4706 23.6629 20.0658 24.3749 19.6564 14.5218 15.8746 11.6893
threshold=0.059523809523809527 0.038261827956989257 0.035714285714285719 0.13095238095238099 -0.091197491039426509 -0.19484569892473116 0.035714285714285719 0.19871794871794876 0.1730769230769231 0.096153846153846159 0.18589743589743593
decision_type=2 2 2 2 2 2 2 2 2 2 2
left_child=1 5 7 4 -2 -1 10 -3 9 -5 -7
right_child=3 2 -4 8 -6 6 -8 -9 -10 -11 -12
leaf_value=-0.0074146873473480111 0.0041379366846945277 0.0012416966299020591 0.0081152076929028299 0.018989418861887822 0.01345973052819774 -0.0018142205432962824 0.0051377352176820634 -0.0037349767112558295 0.013735938088203932 0.031100162694736175 -0.0062656519007699097
leaf_count=18219 1557 10613 2435 755 3026 5987 1553 8200 692 267 10559
internal_value=0 -0.303899 0.046183 1.40984 1.07858 -0.546969 -0.359431 -0.0811459 1.90564 2.21252 -0.459101
internal_count=63863 57566 21248 6297 4583 36318 18099 18813 1714 1022 16546
shrinkage=0.01


Tree=40
num_leaves=12
num_cat=0
split_feature=1 1 2 2 1 3 3 2 3 2 2
split_gain=444.866 73.5739 58.8764 25.3604 25.2275 17.3083 15.1891 11.9621 13.3147 11.8821 11.8294
threshold=0.035714285714285719 0.083333333333333343 0.03500000000000001 0.50500000000000012 0.25000000000000006 0.10897435897435899 0.23717948717948725 0.20500000000000004 0.16025641025641027 1.0000000180025095e-35 0.055000000000000007
decision_type=2 2 2 2 2 2 2 2 2 2 2
left_child=2 3 5 9 6 -1 -3 8 10 -2 -4
right_child=1 4 7 -5 -6 -7 -8 -9 -10 -11 -12
leaf_value=-0.0028413251487476791 -0.00018331756316965488 0.015122105010410185 0.01136083341617026 0.021221650394097083 0.023926105368468061 -0.0066910931958082129 0.0074247641137025087 0.0045228839624814219 -0.0032632150047763905 0.0059766479347179461 0.00053989370502950738
leaf_count=10178 2207 2302 628 305 381 30257 1038 2292 5798 5388 3089
internal_value=0 0.976098 -0.399329 0.53297 1.48035 -0.565492 1.30079 0.0313373 -0.0927208 0.441914 0.229445
internal_count=63863 11621 52242 7900 3721 40435 3340 11807 9515 7595 3717
shrinkage=0.01


Tree=41
num_leaves=12
num_cat=0
split_feature=1 1 0 0 2 2 0 2 1 2 2
split_gain=433.761 70.2225 65.2453 33.614 31.0828 24.0552 24.0224 22.8531 26.5141 20.7635 13.6208
threshold=0.035714285714285719 0.083333333333333343 0.038261827956989257 -0.19484569892473116 0.03500000000000001 0.095000000000000015 -0.091197491039426509 1.0000000180025095e-35 0.25000000000000006 0.24500000000000002 0.12500000000000003
decision_type=2 2 2 2 2 2 2 2 2 2 2
left_child=2 3 5 -2 -4 -1 -3 -8 10 -5 -9
right_child=1 6 4 9 -6 -7 7 8 -10 -11 -12
leaf_value=-0.0072383959833920023 -0.0031997139743423675 0.0077849162820305077 -0.0025518691129429233 0.0060211118139960338 0.0041470271816473883 -0.00131220745639734 0.036606418160894279 0.018001645817982283 0.026312708615419084 0.017554094199752863 0.010168499892378049
leaf_count=29165 2013 1125 14155 5301 4610 4312 163 944 278 586 1211
internal_value=0 0.957725 -0.396885 0.524959 -0.0486247 -0.625477 1.44618 1.67672 1.57742 0.750818 1.34969
internal_count=63863 11621 52242 7900 18765 33477 3721 2596 2433 5887 2155
shrinkage=0.01


Tree=42
num_leaves=12
num_cat=0
split_feature=1 1 0 0 0 1 3 3 3 1 3
split_gain=422.991 67.0586 64.6179 32.6468 22.7438 19.529 15.5193 15.0184 14.3128 16.8527 12.9267
threshold=0.035714285714285719 0.083333333333333343 0.038261827956989257 -0.19484569892473116 -0.091197491039426509 0.25000000000000006 0.37820512820512825 0.16025641025641027 0.32692307692307693 0.22619047619047622 0.083333333333333356
decision_type=2 2 2 2 2 2 2 2 2 2 2
left_child=2 3 -1 -2 -3 8 -7 -4 10 -10 -6
right_child=1 4 7 -5 5 6 -8 -9 9 -11 -12
leaf_value=-0.0062301356549751752 -0.0031775247660427702 0.0076520304820436869 0.0017468483276358577 0.0073801402749574668 0.012354739586022075 0.022835526200879096 0.05639323179124088 -0.0025577144728307346 0.0016161298660709561 0.041647537531761945 0.020216873875944157
leaf_count=33477 2013 1125 8516 5887 1000 257 22 10249 352 22 943
internal_value=0 0.939852 -0.394447 0.517108 1.41321 1.63522 2.53122 -0.0481664 1.45012 0.499193 1.60435
internal_count=63863 11621 52242 7900 3721 2596 279 18765 2317 374 1943
shrinkage=0.01


Tree=43
num_leaves=12
num_cat=0
split_feature=1 1 2 2 1 3 3 2 3 2 3
split_gain=412.551 64.0788 57.8402 23.3304 21.3479 17.2247 13.7741 11.6183 12.9546 11.5078 15.94
threshold=0.035714285714285719 0.083333333333333343 0.03500000000000001 0.50500000000000012 0.25000000000000006 0.10897435897435899 0.23717948717948725 0.20500000000000004 0.16025641025641027 0.055000000000000007 0.096153846153846159
decision_type=2 2 2 2 2 2 2 2 2 2 2
left_child=2 3 5 -2 6 -1 -3 8 9 10 -4
right_child=1 4 7 -5 -6 -7 -8 -9 -10 -11 -12
leaf_value=-0.0027681125213669406 0.0042168465181393238 0.014145071850604752 0.020060042985293083 0.0200441854392878 0.021958141074037978 -0.006630901849383323 0.0069259374328423272 0.0044894528107342849 -0.0032006380919661699 0.00055302335229533118 -0.0036004987396042482
leaf_count=10178 7595 2302 374 305 381 30257 1038 2292 5798 3089 254
internal_value=0 0.922481 -0.39201 0.509411 1.38147 -0.558603 1.21772 0.0348848 -0.0880237 0.229116 1.11924
internal_count=63863 11621 52242 7900 3721 40435 3340 11807 9515 3717 628
shrinkage=0.01


Tree=44
num_leaves=12
num_cat=0
split_feature=2 0 0 2 2 3 2 2 2 0 3
split_gain=271.745 72.9877 66.1807 19.548 16.7927 14.139 15.6749 14.0211 10.7118 9.65214 9.50663
threshold=0.03500000000000001 1.0000000180025095e-35 -0.091197491039426509 1.0000000180025095e-35 0.81500000000000006 0.23717948717948725 0.055000000000000007 0.99500000000000011 0.32500000000000007 -0.29179731182795693 0.18589743589743593
decision_type=2 2 2 2 2 2 2 2 2 2 2
left_child=1 -1 7 -3 5 6 -4 10 -7 -9 -2
right_child=2 3 4 -5 -6 8 -8 9 -10 -11 -12
leaf_value=-0.0072463770525540584 0.0026012513196519995 -0.0020722445221589727 0.016032268891739334 0.0037140532927272406 0.018260665094653988 0.0029638819836456526 0.0080711407331512039 -0.010290585551916713 0.012618378941653841 0.030730548810546616 -0.0024472678365925365
leaf_count=25610 3096 14603 1066 4440 341 3383 6519 30 503 74 4198
internal_value=0 -0.416456 0.569218 -0.0639287 0.824529 0.773027 0.910351 0.0283062 0.440502 2.10546 -0.0156222
internal_count=63863 44653 19210 19043 11812 11471 7585 7398 3886 104 7294
shrinkage=0.01


Tree=45
num_leaves=12
num_cat=0
split_feature=2 0 0 0 2 3 3 3 2 2 2
split_gain=275.099 63.2472 51.4738 28.7495 29.7157 16.2691 14.4838 11.8041 14.0822 8.97628 8.30037
threshold=0.03500000000000001 0.070756630824372765 1.0000000180025095e-35 -0.29179731182795693 0.95500000000000007 0.10897435897435899 0.32692307692307693 0.1730769230769231 0.22500000000000003 0.99500000000000011 0.055000000000000007
decision_type=2 2 2 2 2 2 2 2 2 2 2
left_child=2 3 -1 -2 7 -4 -6 10 -9 -3 -5
right_child=1 9 5 4 6 -7 -8 8 -10 -11 -12
leaf_value=-0.0068878880135950765 -0.003861075422948767 0.0094326137746057817 0.0017842280602972363 0.014034126683995429 0.032690792582354654 -0.0029986425742757508 -0.010338274235691461 -0.00030308563956492682 0.0076512903188964941 0.020695053769993903 0.0050882199132216803
leaf_count=25605 2830 6585 6072 520 118 12976 31 4760 1084 152 3130
internal_value=0 0.561092 -0.428682 0.251886 0.413103 -0.132807 2.60692 0.352398 0.153091 0.983682 0.625175
internal_count=63863 19210 44653 12473 9643 19048 149 9494 5844 6737 3650
shrinkage=0.01


Tree=46
num_leaves=12
num_cat=0
split_feature=1 1 2 3 3 2 2 2 2 2 1
split_gain=427.248 64.6004 56.4418 35.0801 14.6879 11.9816 10.3925 10.3695 11.7863 9.45828 8.9274
threshold=0.035714285714285719 0.10714285714285716 0.095000000000000015 0.083333333333333356 0.51923076923076927 0.99500000000000011 0.76500000000000012 0.99500000000000011 0.85500000000000009 0.03500000000000001 0.41666666666666674
decision_type=2 2 2 2 2 2 2 2 2 2 2
left_child=2 4 3 9 6 -4 -2 8 10 -1 -3
right_child=1 7 5 -5 -6 -7 -8 -9 -10 -11 -12
leaf_value=-0.0021042847530255413 0.0060289631440264392 0.014136097500192348 0.00090789150832247328 -0.0066290778980197971 -0.0061005950370342397 0.016282155123216603 0.017504247003861002 0.030010573013859242 -0.010769904419191427 0.0052867665355042668 0.026868841610100933
leaf_count=8270 8558 2302 6917 35840 484 164 193 60 30 978 67
internal_value=0 0.915276 -0.412329 -0.53791 0.592253 0.145334 0.647224 1.49215 1.43692 -0.111273 1.47598
internal_count=63863 11694 52169 45088 9235 7081 8751 2459 2399 9248 2369
shrinkage=0.01


Tree=47
num_leaves=12
num_cat=0
split_feature=2 0 0 0 2 3 3 3 2 2 3
split_gain=264.056 60.0867 51.1573 27.9553 27.2422 15.7696 13.3168 11.2731 13.4972 7.9615 11.8714
threshold=0.03500000000000001 0.070756630824372765 1.0000000180025095e-35 -0.29179731182795693 0.95500000000000007 0.10897435897435899 0.32692307692307693 0.1730769230769231 0.22500000000000003 0.055000000000000007 0.096153846153846159
decision_type=2 2 2 2 2 2 2 2 2 2 2
left_child=2 3 -1 -2 7 -4 -6 9 -9 10 -5
right_child=1 -3 5 4 6 -7 -8 8 -10 -11 -12
leaf_value=-0.006850135272462891 -0.0038611869882403428 0.0095286723932482293 0.0017719241283691727 0.022537095586905545 0.030684987845507626 -0.0029418678540704506 -0.010340787845220556 -0.00032280455440067011 0.0074263857699559659 0.0049362381263722025 0.0026337846946058474
leaf_count=25605 2830 6737 6072 267 118 12976 31 4760 1084 3130 253
internal_value=0 0.544775 -0.423824 0.243567 0.401422 -0.128608 2.45906 0.342546 0.147834 0.607377 1.36296
internal_count=63863 19210 44653 12473 9643 19048 149 9494 5844 3650 520
shrinkage=0.01


Tree=48
num_leaves=12
num_cat=0
split_feature=2 0 0 3 2 3 0 2 2 2 0
split_gain=258.56 58.3795 50.7488 17.3481 16.8148 15.4927 12.6516 12.4636 12.9344 11.6334 10.8112
threshold=0.03500000000000001 -0.091197491039426509 1.0000000180025095e-35 0.23717948717948725 0.99500000000000011 0.10897435897435899 -0.29179731182795693 0.045000000000000005 0.095000000000000015 0.085000000000000006 -0.29179731182795693
decision_type=2 2 2 2 2 2 2 2 2 2 2
left_child=2 4 -1 7 10 -4 -6 -3 -9 -5 -2
right_child=1 3 5 9 6 -7 -8 8 -10 -11 -12
leaf_value=-0.006827142101798459 -0.003734450135606574 0.016988967930673452 0.0017512073630070763 -0.0015372169656621324 -0.010318713421076832 -0.0029207886426654501 0.033958335986742257 0.0040108230355156513 0.009784128410686042 0.0062521555502427452 0.0018172365790585163
leaf_count=25605 2797 686 6072 1313 33 12976 71 1954 5226 2669 4461
internal_value=0 0.536593 -0.421328 0.770164 0.0278424 -0.127484 2.24328 0.913874 0.84782 0.411641 -0.0212562
internal_count=63863 19210 44653 11848 7362 19048 104 7866 7180 3982 7258
shrinkage=0.01


Tree=49
num_leaves=12
num_cat=0
split_feature=1 1 0 0 3 0 3 0 0 3 3
split_gain=408.595 59.7074 44.2148 38.4793 26.6843 9.66967 9.41581 9.09498 8.81289 9.12091 12.3561
threshold=0.035714285714285719 0.10714285714285716 -0.19484569892473116 1.0000000180025095e-35 0.16025641025641027 -0.29179731182795693 0.21153846153846156 -0.091197491039426509 -0.091197491039426509 0.13461538461538464 0.083333333333333356
decision_type=2 2 2 2 2 2 2 2 2 2 2
left_child=2 3 -1 5 -4 -2 8 -3 -7 10 -10
right_child=1 7 4 -5 -6 6 -8 -9 9 -11 -12
leaf_value=-0.00774334798380497 -0.0047663199172576741 0.0097209682426048216 -6.869669636936893e-06 0.0091313255212104698 -0.004406708297508259 0.0026993684929487484 -0.0011209835510362074 0.015875628589932998 0.016646629124301635 0.02609433692294949 -0.010289616546757032
leaf_count=16796 1270 737 13562 4865 21811 1008 1629 1722 191 163 109
internal_value=0 0.885331 -0.407741 0.575134 -0.256961 0.0681185 0.265757 1.43237 0.643872 1.35934 0.714044
internal_count=63863 11694 52169 9235 35373 4370 3100 2459 1471 463 300
shrinkage=0.01


Tree=50
num_leaves=12
num_cat=0
split_feature=1 2 3 1 2 1 2 2 2 2 3
split_gain=413.083 78.8636 39.3594 25.927 18.348 16.7512 15.4864 15.3878 13.898 11.7978 9.95558
threshold=0.059523809523809527 0.095000000000000015 0.096153846153846159 0.17857142857142858 0.10500000000000002 0.035714285714285719 0.03500000000000001 0.81500000000000006 0.055000000000000007 0.43500000000000005 0.51923076923076927
decision_type=2 2 2 2 2 2 2 2 2 2 2
left_child=1 2 6 9 -5 -4 -1 -3 -8 10 -2
right_child=3 7 5 4 -6 -7 8 -9 -10 -11 -12
leaf_value=-0.0021351691978166438 0.009148701900246213 0.0017454352978051014 -0.0067560654966329608 0.026501136139424796 0.013838984260471563 -0.00062827016355703619 0.01407980797289961 0.014443140718987979 0.00030648406234304944 0.017220720483261186 -0.0047045563327831113
leaf_count=9835 4768 8467 34818 206 682 2709 531 310 915 410 212
internal_value=0 -0.32921 -0.481122 1.13994 1.71447 -0.619126 -0.0841705 0.241424 0.561787 0.953747 0.869862
internal_count=63863 57585 48808 6278 888 37527 11281 8777 1446 5390 4980
shrinkage=0.01


Tree=51
num_leaves=12
num_cat=0
split_feature=1 2 0 1 0 0 2 2 1 0 2
split_gain=402.021 77.7246 37.4611 24.6519 23.3193 19.7362 17.1551 16.3556 14.2136 9.66585 8.67451
threshold=0.059523809523809527 0.095000000000000015 1.0000000180025095e-35 0.17857142857142858 -0.29179731182795693 1.0000000180025095e-35 0.10500000000000002 0.81500000000000006 0.035714285714285719 0.070756630824372765 0.84500000000000008
decision_type=2 2 2 2 2 2 2 2 2 2 2
left_child=1 2 -1 5 -3 -2 -5 9 -4 -6 -9
right_child=3 4 8 6 7 -7 -8 10 -10 -11 -12
leaf_value=-0.0069659055312212845 0.0051083287779139751 -0.0068431675577057503 -0.0031314313014062416 0.025665664001409527 0.0007713782148497211 0.011873385822006538 0.013539186857837027 0.046516400688680119 0.0031991160319353269 0.0057497339816022239 0.013489590046694653
leaf_count=27817 2365 1375 19113 206 4371 3025 682 26 1878 2765 240
internal_value=0 -0.326978 -0.478558 1.11706 0.238457 0.935912 1.67287 0.370274 -0.238304 0.294828 1.6626
internal_count=63863 57585 48808 6278 8777 5390 888 7402 20991 7136 266
shrinkage=0.01


Tree=52
num_leaves=12
num_cat=0
split_feature=1 2 3 1 1 2 2 2 2 2 3
split_gain=391.335 76.5979 39.1168 23.459 16.608 16.0658 15.1544 14.2658 13.3906 11.095 9.53545
threshold=0.059523809523809527 0.095000000000000015 0.096153846153846159 0.17857142857142858 0.035714285714285719 0.10500000000000002 0.03500000000000001 0.81500000000000006 0.055000000000000007 0.43500000000000005 0.51923076923076927
decision_type=2 2 2 2 2 2 2 2 2 2 2
left_child=1 2 6 9 -4 -5 -1 -3 -8 10 -2
right_child=3 7 4 5 -6 -7 8 -9 -10 -11 -12
leaf_value=-0.0020843047258531657 0.0088100742982202881 0.0017051708589354961 -0.0067143853918691602 0.024876422270616167 -0.00060200997638148567 0.013249618969774864 0.013823038867383697 0.013776167565175837 0.00033897493941041054 0.016544587811964384 -0.0047233817359634096
leaf_count=9835 4768 8467 34818 206 2709 682 531 310 915 410 212
internal_value=0 -0.324757 -0.475994 1.09489 -0.614637 1.63293 -0.0796312 0.235526 0.55821 0.918575 0.837628
internal_count=63863 57585 48808 6278 37527 888 11281 8777 1446 5390 4980
shrinkage=0.01


Tree=53
num_leaves=12
num_cat=0
split_feature=1 0 1 1 3 0 0 3 3 3 3
split_gain=381.005 63.271 29.1541 22.3424 19.5022 18.6874 13.1794 14.4511 8.76976 15.9283 7.63645
threshold=0.059523809523809527 1.0000000180025095e-35 0.035714285714285719 0.17857142857142858 0.10897435897435899 1.0000000180025095e-35 -0.19484569892473116 0.18589743589743593 0.51923076923076927 0.49358974358974367 0.083333333333333356
decision_type=2 2 2 2 2 2 2 2 2 2 2
left_child=1 6 4 5 -3 -2 -1 -8 9 10 -7
right_child=3 2 -4 -5 -6 8 7 -9 -10 -11 -12
leaf_value=-0.007384352933218684 0.0049028698177159174 0.0014770457745491618 0.0055777599637418561 0.015945541052367083 -0.0032819665842775641 0.0088973012794793093 -0.0006829314347611829 -0.0060952219824164959 -0.0065761074011175822 0.04480714246395677 0.014069994170762892
leaf_count=18094 2365 7065 2798 888 15416 1415 5269 8943 87 39 1484
internal_value=0 -0.322542 -0.0538511 1.07338 -0.161138 0.901704 -0.583863 -0.397217 1.14352 1.18468 1.14289
internal_count=63863 57585 25279 6278 22481 5390 32306 14212 3025 2938 2899
shrinkage=0.01


Tree=54
num_leaves=12
num_cat=0
split_feature=2 0 0 3 2 2 0 2 3 3 2
split_gain=239.012 48.071 42.9377 24.5972 18.5305 17.7608 12.9051 14.3803 9.02523 8.31 7.13917
threshold=0.03500000000000001 1.0000000180025095e-35 -0.29179731182795693 0.19871794871794876 1.0000000180025095e-35 0.96500000000000008 0.038261827956989257 0.23500000000000001 0.19871794871794876 0.083333333333333356 0.115
decision_type=2 2 2 2 2 2 2 2 2 2 2
left_child=1 -1 -2 5 9 -4 10 -8 -6 -3 -5
right_child=2 4 3 6 8 -7 7 -9 -10 -11 -12
leaf_value=-0.0068261424552920683 -0.0032889288488676944 0.00011471926935320219 0.0073631735404127516 -0.0024829855771396963 0.005756204225273758 0.020608617210138517 0.003608414661621713 0.013424822536953854 -0.0011207971053386904 -0.0040336979522075508 0.0030659681660690618
leaf_count=25507 2827 3883 8792 2326 2386 195 2479 575 2097 10712 2084
internal_value=0 -0.421984 0.496701 0.599888 -0.136637 0.787378 0.307065 0.598109 0.284154 -0.279357 0.0535253
internal_count=63863 44585 19278 16451 19078 8987 7464 3054 4483 14595 4410
shrinkage=0.01


Tree=55
num_leaves=12
num_cat=0
split_feature=1 2 1 0 0 2 1 2 2 2 2
split_gain=367.328 53.076 49.861 38.8978 34.6056 19.7974 22.306 19.6913 15.9326 11.9405 15.7783
threshold=0.035714285714285719 0.10500000000000002 0.083333333333333343 1.0000000180025095e-35 -0.19484569892473116 0.025000000000000005 0.20238095238095241 0.81500000000000006 0.28500000000000009 0.45500000000000007 0.99500000000000011
decision_type=2 2 2 2 2 2 2 2 2 2 2
left_child=1 3 4 -1 7 -4 -7 -2 -6 -8 -11
right_child=2 -3 5 -5 8 6 9 -9 -10 10 -12
leaf_value=-0.0073361262702745667 -0.0054187722570827809 0.0022691543902805173 0.022503986675990788 -0.0025013643327108336 0.0054810471822569909 0.0085198959867490084 0.019247506960571377 0.039525503015568168 0.015710048391188565 -0.0010193512798203684 0.026651375495123832
leaf_count=26985 1980 5335 440 19860 5404 2689 513 32 489 107 29
internal_value=0 -0.39765 0.816439 -0.506061 0.452132 1.19105 1.0873 -0.418817 0.666646 1.66509 0.696552
internal_count=63863 52180 11683 46845 7905 3778 3338 2012 5893 649 136
shrinkage=0.01


Tree=56
num_leaves=12
num_cat=0
split_feature=1 1 0 0 1 3 0 3 0 3 3
split_gain=358.733 47.8437 45.9564 33.6955 16.694 12.9351 11.4315 11.0831 9.16207 8.05809 7.65588
threshold=0.035714285714285719 0.083333333333333343 0.038261827956989257 -0.19484569892473116 0.20238095238095241 0.16025641025641027 -0.19484569892473116 0.18589743589743593 -0.29179731182795693 0.40384615384615391 0.083333333333333356
decision_type=2 2 2 2 2 2 2 2 2 2 2
left_child=2 3 6 -2 9 -4 -1 -8 -6 10 -3
right_child=1 4 5 -5 8 -7 7 -9 -10 -11 -12
leaf_value=-0.0075985803653914018 -0.0041634209840250933 0.0078446037989117878 0.00096936594742482384 0.0065583080920860772 0.0029039808076302205 -0.0030396069954263319 -0.0016739564132888991 -0.006148232796329655 0.017992724368451948 0.0022333556845707367 0.012917648588681338
leaf_count=16830 2012 1154 8580 5893 78 10228 5940 10602 584 367 1595
internal_value=0 0.802353 -0.395211 0.44569 1.16685 -0.105587 -0.598421 -0.444109 1.6639 0.982323 1.06231
internal_count=63863 11683 52180 7905 3778 18808 33372 16542 662 3116 2749
shrinkage=0.01


Tree=57
num_leaves=12
num_cat=0
split_feature=1 2 1 3 2 1 2 2 2 2 3
split_gain=350.38 52.4921 45.9325 25.5843 18.488 20.355 18.1628 11.1307 14.8749 10.9286 7.46448
threshold=0.035714285714285719 0.10500000000000002 0.083333333333333343 0.083333333333333356 0.025000000000000005 0.20238095238095241 0.28500000000000009 0.45500000000000007 0.99500000000000011 0.47500000000000003 0.41666666666666669
decision_type=2 2 2 2 2 2 2 2 2 2 2
left_child=1 3 6 -1 -4 9 -2 -7 -9 -6 -11
right_child=2 -3 4 -5 5 7 -8 8 -10 10 -12
leaf_value=-0.0014575512185415372 0.0032753776526542322 0.0022834275174020112 0.021514698301653225 -0.0061007419914079156 0.0071279852824649853 0.018332442765713847 0.013088590161202937 -0.0011594401699252768 0.025339875021662472 0.018897819279656603 -0.010457325825205399
leaf_count=9648 7263 5335 440 37197 2441 513 642 107 29 224 24
internal_value=0 -0.392775 0.788626 -0.501422 1.14343 1.04368 0.439367 1.58727 0.659937 0.819883 1.68096
internal_count=63863 52180 11683 46845 3778 3338 7905 649 136 2689 248
shrinkage=0.01


Tree=58
num_leaves=12
num_cat=0
split_feature=1 2 1 0 0 2 2 1 2 0 0
split_gain=342.258 51.7828 44.1146 38.5981 32.6673 18.5697 17.3979 19.5887 14.496 11.5306 11.3161
threshold=0.035714285714285719 0.10500000000000002 0.083333333333333343 1.0000000180025095e-35 -0.19484569892473116 0.81500000000000006 0.025000000000000005 0.25000000000000006 0.28500000000000009 -0.29179731182795693 -0.091197491039426509
decision_type=2 2 2 2 2 2 2 2 2 2 2
left_child=1 3 4 -1 5 -2 10 -8 -6 -3 -4
right_child=2 9 6 -5 8 -7 7 -9 -10 -11 -12
leaf_value=-0.0072819089484203138 -0.0053921209928030813 -0.006061744625587469 0.0080482635773389197 -0.0024340007419423595 0.0052501210804630346 0.037312516081014241 0.0086022213751030894 0.017326459185622055 0.014859974116915853 0.0034501440371446121 0.026107822729231289
leaf_count=26985 1980 850 156 19860 5404 32 2954 384 489 4485 284
internal_value=0 -0.390347 0.775234 -0.498845 0.433164 -0.416419 1.12072 1.02394 0.638162 0.225565 2.08866
internal_count=63863 52180 11683 46845 7905 2012 3778 3338 5893 5335 440
shrinkage=0.01


Tree=59
num_leaves=12
num_cat=0
split_feature=1 0 1 0 3 1 0 3 3 0 3
split_gain=334.359 45.4198 42.3829 31.822 19.256 14.6743 8.4859 7.54075 7.14881 15.5767 9.50346
threshold=0.035714285714285719 -0.091197491039426509 0.083333333333333343 -0.19484569892473116 0.16025641025641027 0.20238095238095241 -0.29179731182795693 0.40384615384615391 0.083333333333333356 0.070756630824372765 0.21153846153846156
decision_type=2 2 2 2 2 2 2 2 2 2 2
left_child=1 -1 3 -2 -3 7 -7 8 -4 -10 -11
right_child=2 4 5 -5 -6 6 -8 -9 9 10 -12
leaf_value=-0.0067767930138843283 -0.0041394968578322916 0.00045220979926115413 0.0073776271077961933 0.0062798376096480932 -0.0036925550402980064 0.0025086291435763288 0.01682171739681268 0.0019944438651666079 0.0086287626460966205 0.023435735423108183 0.010494377055074422
leaf_count=23989 2012 11363 1154 5893 16828 78 584 367 1101 297 197
internal_value=0 -0.387928 0.762163 0.427074 -0.184867 1.09868 1.55511 0.927239 1.00324 1.22139 1.86261
internal_count=63863 52180 11683 7905 28191 3778 662 3116 2749 1595 494
shrinkage=0.01


Tree=60
num_leaves=12
num_cat=0
split_feature=1 1 0 0 3 0 1 3 3 3 3
split_gain=335.063 45.8489 41.8092 29.1691 18.3207 11.7258 7.97886 11.2979 11.2514 22.6855 7.29124
threshold=0.035714285714285719 0.083333333333333343 1.0000000180025095e-35 -0.19484569892473116 0.16025641025641027 -0.29179731182795693 0.13095238095238099 0.39102564102564108 0.1730769230769231 0.14743589743589747 0.096153846153846159
decision_type=2 2 2 2 2 2 2 2 2 2 2
left_child=2 3 10 -2 -4 -3 -7 8 9 -8 -1
right_child=1 5 4 -5 -6 6 7 -9 -10 -11 -12
leaf_value=-0.003209818785163525 -0.0036328246420600204 0.0036165809069271799 0.0011078215641124418 0.0063104400533317293 -0.0033243478639153412 0.0095744639241320487 0.013246450601859805 0.024841063767521359 0.007287087323279982 0.033530270568330564 -0.0065802073147620726
leaf_count=5570 2026 467 9661 5895 12808 1802 850 151 424 82 24127
internal_value=0 0.786773 -0.362545 0.439218 -0.122942 1.13542 1.21565 1.39621 1.29309 1.50979 -0.589291
internal_count=63863 11697 52166 7921 22469 3776 3309 1507 1356 932 29697
shrinkage=0.01


Tree=61
num_leaves=12
num_cat=0
split_feature=1 2 1 0 0 2 0 2 0 2 1
split_gain=327.129 44.3628 44.0433 30.6753 28.3984 15.0467 13.245 11.4198 11.227 11.8562 16.1475
threshold=0.035714285714285719 0.095000000000000015 0.083333333333333343 1.0000000180025095e-35 -0.19484569892473116 0.81500000000000006 -0.29179731182795693 0.24500000000000002 -0.29179731182795693 0.025000000000000005 0.13095238095238099
decision_type=2 2 2 2 2 2 2 2 2 2 2
left_child=1 3 4 -1 5 -2 -3 -6 -4 10 -10
right_child=2 6 8 -5 7 -7 -8 -9 9 -11 -12
leaf_value=-0.0069134841389297255 -0.0047966273040572181 -0.0065102113358219216 0.0035685873331788966 -0.0024462910812052189 0.0051013241809816021 0.031174878088536227 0.0023978114297267088 0.01290495211919729 0.013428249496121508 0.011094967292498406 0.03569301040469635
leaf_count=25927 1991 1161 467 19109 5296 35 5969 599 303 2935 71
internal_value=0 -0.360196 0.773442 -0.479038 0.433017 -0.360914 0.126589 0.621012 1.11299 1.19083 2.03368
internal_count=63863 52166 11697 45036 7921 2026 7130 5895 3776 3309 374
shrinkage=0.01


Tree=62
num_leaves=12
num_cat=0
split_feature=1 2 1 3 2 2 2 1 2 3 2
split_gain=319.413 43.7832 42.3176 32.4723 12.8291 9.64473 12.1333 8.75331 18.8828 8.21142 7.95549
threshold=0.035714285714285719 0.095000000000000015 0.083333333333333343 0.10897435897435899 0.24500000000000002 0.03500000000000001 0.045000000000000005 0.13095238095238099 0.025000000000000005 0.36538461538461547 0.22500000000000003
decision_type=2 2 2 2 2 2 2 2 2 2 2
left_child=1 3 4 5 -2 -1 -7 9 -9 -4 -3
right_child=2 10 7 -5 -6 6 -8 8 -10 -11 -12
leaf_value=-0.0020956818522845258 0.0032294364341691464 -0.00040959182878835387 0.009665115230114877 -0.0062161671891732082 0.010727152602915846 0.016525231344381698 0.00060519005964461989 0.030716588228744783 0.011769813368323818 0.00041069400899719743 0.0044302277364517643
leaf_count=10059 7144 4983 1700 33697 777 295 985 85 1628 363 2147
internal_value=0 -0.357858 0.760418 -0.476476 0.426933 -0.111804 0.453016 1.09117 1.2694 0.836186 0.125168
internal_count=63863 52166 11697 45036 7921 11339 1280 3776 1713 2063 7130
shrinkage=0.01


Tree=63
num_leaves=12
num_cat=0
split_feature=1 2 1 3 2 2 2 1 2 3 2
split_gain=311.918 43.2104 40.6819 32.2044 12.3635 9.44015 11.6462 8.37086 17.6603 7.91303 7.75798
threshold=0.035714285714285719 0.095000000000000015 0.083333333333333343 0.10897435897435899 0.24500000000000002 0.03500000000000001 0.045000000000000005 0.13095238095238099 0.025000000000000005 0.36538461538461547 0.22500000000000003
decision_type=2 2 2 2 2 2 2 2 2 2 2
left_child=1 3 4 5 -2 -1 -7 9 -9 -4 -3
right_child=2 10 7 -5 -6 6 -8 8 -10 -11 -12
leaf_value=-0.0020789657927648766 0.0031873106956381743 -0.00040565583875004619 0.0094840402205929025 -0.006191541701990752 0.010514885604020661 0.016102640348055305 0.0005987887791739935 0.029632230458363062 0.011536498288855503 0.00040643050246079177 0.0043674479594583288
leaf_count=10059 7144 4983 1700 33697 777 295 985 85 1628 363 2147
internal_value=0 -0.355529 0.747721 -0.473918 0.42096 -0.110813 0.446508 1.07005 1.24325 0.821492 0.123766
internal_count=63863 52166 11697 45036 7921 11339 1280 3776 1713 2063 7130
shrinkage=0.01


Tree=64
num_leaves=12
num_cat=0
split_feature=1 0 1 0 3 0 0 3 1 3 3
split_gain=304.63 41.1586 39.1246 27.4141 17.6488 10.5533 7.20188 8.56933 6.86424 10.2077 10.3907
threshold=0.035714285714285719 1.0000000180025095e-35 0.083333333333333343 -0.19484569892473116 0.16025641025641027 -0.29179731182795693 -0.29179731182795693 0.096153846153846159 0.13095238095238099 0.39102564102564108 0.1730769230769231
decision_type=2 2 2 2 2 2 2 2 2 2 2
left_child=1 6 3 -2 -3 -4 -1 -8 -7 10 -10
right_child=2 4 5 -5 -6 8 7 -9 9 -11 -12
leaf_value=-0.0079286621714431977 -0.0036395668878213827 0.0011410321200510983 0.0032440540035832601 0.0059783056481873785 -0.0032268339768436829 0.0088789907442700152 -0.0014548746743246745 -0.0058308160394025957 0.01394078110972697 0.022933044998343543 0.0065815333678848498
leaf_count=8966 2026 9661 467 5895 12808 1802 3852 16879 932 151 424
internal_value=0 -0.353208 0.735326 0.415094 -0.115037 1.04955 -0.580928 -0.493337 1.12371 1.28721 1.19071
internal_count=63863 52166 11697 7921 22469 3776 29697 20731 3309 1507 1356
shrinkage=0.01


Tree=65
num_leaves=12
num_cat=0
split_feature=1 0 2 2 0 2 1 1 0 1 2
split_gain=274.117 78.7997 31.25 27.5765 15.4499 9.92991 8.53539 6.92504 6.78518 6.51795 6.38887
threshold=0.059523809523809527 1.0000000180025095e-35 0.20500000000000004 1.0000000180025095e-35 -0.091197491039426509 0.045000000000000005 0.035714285714285719 0.25000000000000006 -0.29179731182795693 0.17857142857142858 0.025000000000000005
decision_type=2 2 2 2 2 2 2 2 2 2 2
left_child=1 2 5 -3 9 -1 -5 10 -4 -2 -6
right_child=4 3 8 6 7 -7 -8 -9 -10 -11 -12
leaf_value=-0.0073239481793549921 0.0030352605605892618 -0.0023163775307192334 -0.0045050155631335383 0.0016099831367152994 0.01402773816064936 -0.0035377698885258758 0.0061851760096689771 0.015041492663075662 0.0067192465815631517 0.010194078659906288 0.0086720990575864763
leaf_count=25640 1799 14293 387 8966 738 5350 1994 270 991 253 3182
internal_value=0 -0.272542 -0.575512 0.0253821 0.876219 -0.648856 0.269136 1.01674 0.40886 0.472863 0.946459
internal_count=63863 57621 32368 25253 6242 30990 10960 4190 1378 2052 3920
shrinkage=0.01


Tree=66
num_leaves=12
num_cat=0
split_feature=1 2 3 1 3 2 2 1 2 2 2
split_gain=267.253 59.1774 33.6695 16.2081 10.6111 10.0052 9.26861 8.48753 9.63826 6.71836 6.63344
threshold=0.059523809523809527 0.085000000000000006 0.083333333333333356 0.035714285714285719 0.5705128205128206 0.03500000000000001 0.22500000000000003 0.10714285714285716 0.025000000000000005 0.39500000000000007 0.055000000000000007
decision_type=2 2 2 2 2 2 2 2 2 2 2
left_child=1 2 5 -4 7 -1 -3 -2 -9 -8 -7
right_child=4 6 3 -5 -6 10 9 8 -10 -11 -12
leaf_value=-0.0012307537367441455 0.0069124075140610079 0.00052652876812166107 -0.0060175591729615431 -2.5705152984140593e-05 -0.0078324748659510356 0.01144175418430431 0.010294482889797302 0.020093551753922231 0.0097858201577668367 0.0031364680918240968 0.00097678948060535829
leaf_count=9007 3718 6738 35474 2700 125 464 704 169 2230 1896 638
internal_value=0 -0.270549 -0.414793 -0.542217 0.860792 -0.0184163 0.200641 0.88429 1.04664 0.50755 0.571083
internal_count=63863 57621 48283 38174 6242 10109 9338 6117 2399 2600 1102
shrinkage=0.01


Tree=67
num_leaves=12
num_cat=0
split_feature=1 0 3 0 3 1 0 1 3 3 0
split_gain=260.587 77.869 24.4339 14.7133 12.8764 11.6587 8.88585 7.83348 6.86799 7.75414 8.74815
threshold=0.059523809523809527 1.0000000180025095e-35 0.10897435897435899 -0.091197491039426509 0.18589743589743593 0.035714285714285719 -0.19484569892473116 0.035714285714285719 0.5705128205128206 0.083333333333333356 0.038261827956989257
decision_type=2 2 2 2 2 2 2 2 2 2 2
left_child=1 6 -3 4 -2 -4 -1 -8 9 -5 -11
right_child=3 2 5 8 -6 -7 7 -9 -10 10 -12
leaf_value=-0.0070391177759075753 0.008863068144146646 0.0032801325819756494 -0.0023924746640484975 0.0079722854318043067 0.00036055541344611803 0.0036756384791135892 -0.0049078800804407841 0.0011123858608709115 -0.0065289804407319433 0.0073335078557450108 0.013695733256155779
leaf_count=18145 905 8384 15360 1821 1147 1509 12956 1267 73 728 1568
internal_value=0 -0.268564 0.027372 0.845735 0.454205 -0.157624 -0.57157 -0.415084 0.98152 1.00197 1.18858
internal_count=63863 57621 25253 6242 2052 16869 32368 14223 4190 4117 2296
shrinkage=0.01


Tree=68
num_leaves=12
num_cat=0
split_feature=1 2 1 3 3 3 1 2 2 3 2
split_gain=254.824 40.6735 31.1432 21.4428 12.6474 10.072 8.1039 9.03855 8.07281 8.23596 7.79403
threshold=0.035714285714285719 0.03500000000000001 0.059523809523809527 0.083333333333333356 0.22435897435897442 0.5705128205128206 0.10714285714285716 0.025000000000000005 0.085000000000000006 0.18589743589743593 0.085000000000000006
decision_type=2 2 2 2 2 2 2 2 2 2 2
left_child=1 3 8 -1 -3 6 -4 -8 -2 -10 -6
right_child=2 4 5 -5 10 -7 7 -9 9 -11 -12
leaf_value=-0.0013075042588780591 5.5489395958462162e-05 0.0020272122197010269 0.0066608089195425548 -0.0060790543971972286 -0.0074428108475264486 -0.0077984928927015305 0.019312143116184427 0.0094505407251730036 0.009004024136954317 0.00047473363945928877 -0.00091373028930031219
leaf_count=8285 3675 6614 3718 32199 1797 125 169 2230 950 809 3292
internal_value=0 -0.342587 0.649026 -0.495566 0.0125946 0.831035 0.85346 1.01073 0.21735 0.541567 -0.282593
internal_count=63863 52187 11676 40484 11703 6242 6117 2399 5434 1759 5089
shrinkage=0.01


Tree=69
num_leaves=12
num_cat=0
split_feature=1 0 1 3 0 0 3 0 1 3 3
split_gain=249.099 58.3665 30.0765 19.1573 14.9178 14.0266 12.3359 7.87487 6.45487 8.44203 8.73864
threshold=0.035714285714285719 0.038261827956989257 0.059523809523809527 0.16025641025641027 -0.19484569892473116 -0.091197491039426509 0.18589743589743593 -0.19484569892473116 0.25000000000000006 0.5705128205128206 0.083333333333333356
decision_type=2 2 2 2 2 2 2 2 2 2 2
left_child=1 7 4 -3 -2 6 -4 -1 9 10 -7
right_child=2 3 5 -5 -6 8 -8 -9 -10 -11 -12
leaf_value=-0.0071967291861475382 -0.0052267728259414673 0.0023090009249681098 0.0085519685291956856 -0.0026201027507307883 0.0038645969838732148 0.006688945336567431 0.00027777760951689474 -0.0044905824918311946 0.014106255193871731 -0.010401530247531711 0.011104823652702107
leaf_count=16755 1390 8610 905 10268 4044 1680 1147 16554 270 70 2170
internal_value=0 -0.340306 0.638841 -0.0134855 0.214728 0.816729 0.436412 -0.57968 0.948047 0.881207 0.905294
internal_count=63863 52187 11676 18878 5434 6242 2052 33309 4190 3920 3850
shrinkage=0.01


Tree=70
num_leaves=12
num_cat=0
split_feature=1 2 1 3 2 2 1 2 2 3 2
split_gain=232.997 47.8691 31.356 27.8331 15.1917 10.8676 10.1156 7.75494 10.2198 7.33149 7.18282
threshold=0.035714285714285719 0.10500000000000002 0.083333333333333343 0.083333333333333356 0.81500000000000006 1.0000000180025095e-35 0.34523809523809529 0.03500000000000001 0.075000000000000025 0.51923076923076927 0.74500000000000011
decision_type=2 2 2 2 2 2 2 2 2 2 2
left_child=1 3 4 7 9 -4 10 -1 -9 -2 -7
right_child=2 -3 5 -5 -6 6 -8 8 -10 -11 -12
leaf_value=-0.0018674299954945751 0.0030906759277039165 0.0024912679923508453 0.019077489792092787 -0.005683296865938452 0.018081881051789601 0.0071082338923834079 0.016353456890031422 0.01013517626493309 -0.0017406343804612697 -0.0065683945304862573 0.015165582824598834
leaf_count=8309 7325 5375 239 37197 132 3214 136 632 733 412 159
internal_value=0 -0.340314 0.606212 -0.449376 0.319262 0.879638 0.827985 -0.0770108 0.387519 0.266938 0.763685
internal_count=63863 52246 11617 46871 7869 3748 3509 9674 1365 7737 3373
shrinkage=0.01


Tree=71
num_leaves=12
num_cat=0
split_feature=1 0 1 0 3 0 3 1 0 3 3
split_gain=227.873 46.7867 30.2711 16.4221 11.3215 9.95932 8.35023 7.58786 7.38183 9.68799 6.44893
threshold=0.035714285714285719 0.038261827956989257 0.083333333333333343 -0.19484569892473116 0.19871794871794876 -0.19484569892473116 0.18589743589743593 0.34523809523809529 -0.091197491039426509 0.083333333333333356 0.23717948717948725
decision_type=2 2 2 2 2 2 2 2 2 2 2
left_child=1 5 3 -2 -3 -1 -7 8 -4 -10 -11
right_child=2 4 7 -5 -6 6 -8 -9 9 10 -12
leaf_value=-0.0071175018187962149 -0.0029590328736801706 0.0010878500995618687 0.0047357922683046016 0.0045253685923688529 -0.0027907741214591784 -0.0016462192460394731 -0.0056198055319997536 0.015543855144224692 0.0064670031856023328 0.014201966764462946 0.0083275305872413524
leaf_count=16753 1995 10578 1133 5874 8304 6025 10586 138 1097 724 656
internal_value=0 -0.338042 0.596952 0.315119 -0.0451663 -0.553289 -0.406366 0.864289 0.810962 0.925278 1.16854
internal_count=63863 52246 11617 7869 18882 33364 16611 3748 3610 2477 1380
shrinkage=0.01


Tree=72
num_leaves=12
num_cat=0
split_feature=1 2 0 1 0 0 2 0 2 1 2
split_gain=222.877 47.2549 38.5394 29.2335 16.0241 13.0944 10.2212 11.4686 10.1547 9.57101 9.13304
threshold=0.035714285714285719 0.10500000000000002 0.038261827956989257 0.083333333333333343 -0.19484569892473116 -0.29179731182795693 1.0000000180025095e-35 -1.0000000180025095e-35 0.24500000000000002 0.15476190476190479 0.81500000000000006
decision_type=2 2 2 2 2 2 2 2 2 2 2
left_child=1 2 -1 4 10 -3 7 -5 -6 -8 -2
right_child=3 5 -4 6 8 -7 9 -9 -10 -11 -12
leaf_value=-0.0065395701302431389 -0.00384833066550692 -0.0065881242477222688 -0.001492446771128207 0.0049295732097338644 0.0034383618399108046 0.0037369146446211907 0.0058607967280436355 0.026862551431346825 0.010653458050831082 0.010263769770241311 0.025074797859932507
leaf_count=30201 1963 855 16670 110 5294 4520 2289 129 580 1220 32
internal_value=0 -0.335774 -0.44489 0.587889 0.31104 0.249666 0.849346 1.83394 0.446103 0.799366 -0.293783
internal_count=63863 52246 46871 11617 7869 5375 3748 239 5874 3509 1995
shrinkage=0.01


Tree=73
num_leaves=12
num_cat=0
split_feature=1 0 1 0 3 0 3 1 0 3 3
split_gain=218.005 45.7991 28.237 15.6377 11.1179 9.94574 8.31265 7.1739 7.00626 9.19468 6.09629
threshold=0.035714285714285719 0.038261827956989257 0.083333333333333343 -0.19484569892473116 0.19871794871794876 -0.19484569892473116 0.18589743589743593 0.34523809523809529 -0.091197491039426509 0.083333333333333356 0.23717948717948725
decision_type=2 2 2 2 2 2 2 2 2 2 2
left_child=1 5 3 -2 -3 -1 -7 8 -4 -10 -11
right_child=2 4 7 -5 -6 6 -8 -9 9 10 -12
leaf_value=-0.0070773337141215066 -0.0029169095298446071 0.0010813792442528215 0.0045610240403712197 0.0043979651376483894 -0.0027656641873079414 -0.0015912421225223838 -0.0055715988501115954 0.01499269246304832 0.0062354651699072262 0.013701158026774143 0.0080374145086328751
leaf_count=16753 1995 10578 1133 5874 8304 6025 10586 138 1097 724 656
internal_value=0 -0.333518 0.579014 0.30703 -0.0442018 -0.548218 -0.4009 0.834763 0.783161 0.893506 1.12814
internal_count=63863 52246 11617 7869 18882 33364 16611 3748 3610 2477 1380
shrinkage=0.01


Tree=74
num_leaves=12
num_cat=0
split_feature=1 0 1 0 3 0 3 1 0 3 3
split_gain=213.252 45.2967 27.2836 15.2611 10.9193 9.90752 8.23688 6.88676 6.74454 8.8057 5.812
threshold=0.035714285714285719 0.038261827956989257 0.083333333333333343 -0.19484569892473116 0.19871794871794876 -0.19484569892473116 0.18589743589743593 0.34523809523809529 -0.091197491039426509 0.083333333333333356 0.23717948717948725
decision_type=2 2 2 2 2 2 2 2 2 2 2
left_child=1 5 3 -2 -3 -1 -7 8 -4 -10 -11
right_child=2 4 7 -5 -6 6 -8 -9 9 10 -12
leaf_value=-0.007055307817514656 -0.0028958891218039233 0.0010694477553582092 0.0044968937444109583 0.0043359715251671434 -0.0027453850045776008 -0.0015777726661714748 -0.0055460280517120684 0.014679592764980272 0.0061402121695785516 0.013405947196283931 0.0079007508591285563
leaf_count=16753 1995 10578 1133 5874 8304 6025 10586 138 1097 724 656
internal_value=0 -0.331267 0.570321 0.30308 -0.0437804 -0.545658 -0.398451 0.820557 0.77007 0.877776 1.10601
internal_count=63863 52246 11617 7869 18882 33364 16611 3748 3610 2477 1380
shrinkage=0.01


Tree=75
num_leaves=12
num_cat=0
split_feature=1 0 0 1 1 3 3 0 3 3 3
split_gain=231.427 45.0735 28.639 18.9147 12.176 10.4005 9.95129 9.02083 7.48516 5.67827 5.62187
threshold=0.035714285714285719 0.038261827956989257 -0.091197491039426509 0.15476190476190479 0.13095238095238099 0.10897435897435899 0.22435897435897442 -0.19484569892473116 0.18589743589743593 0.5064102564102565 0.5705128205128206
decision_type=2 2 2 2 2 2 2 2 2 2 2
left_child=1 7 4 10 9 -3 -6 -1 -9 -2 -4
right_child=2 5 3 -5 6 -7 -8 8 -10 -11 -12
leaf_value=-0.0071283607690766793 0.00022834023154442214 0.0017230984376673426 0.0063021026622612133 0.011976080326320923 0.011400045577681974 -0.0020207533933920539 -0.00035040388616163057 -0.001889438907700304 -0.0056798415168360008 -0.010204601483266943 -0.0071456395355352347
leaf_count=16717 3326 6313 6551 841 296 12547 212 6018 10617 307 118
internal_value=0 -0.344696 0.593687 0.753238 0.155993 -0.0579142 0.692064 -0.559465 -0.418903 -0.0513307 0.61161
internal_count=63863 52212 11651 7510 4141 18860 508 33352 16635 3633 6669
shrinkage=0.01


Tree=76
num_leaves=12
num_cat=0
split_feature=1 0 1 0 0 3 1 0 3 3 3
split_gain=226.373 44.5949 27.711 18.3928 12.4574 10.2022 9.16619 8.98928 8.2316 8.20298 7.42124
threshold=0.035714285714285719 0.038261827956989257 0.083333333333333343 1.0000000180025095e-35 -0.29179731182795693 0.10897435897435899 0.15476190476190479 -0.19484569892473116 0.26282051282051283 0.21153846153846156 0.18589743589743593
decision_type=2 2 2 2 2 2 2 2 2 2 2
left_child=1 7 3 9 8 -3 -6 -1 -4 -2 -9
right_child=2 5 4 -5 6 -7 -8 10 -10 -11 -12
leaf_value=-0.007106547903163233 0.0026639878512735404 0.0017030374289808555 0.0051393013718556068 0.0055844214190527864 0.0071355858431339375 -0.0020044787212047679 0.011505097947887257 -0.0018739900472254033 -0.0088402794143626427 -0.0038551095736935924 -0.0056543832078914226
leaf_count=16717 1758 6313 307 4074 2257 12547 1045 6018 164 2046 10617
internal_value=0 -0.342406 0.584705 0.316346 0.835206 -0.0573691 0.911971 -0.556914 0.0740492 -0.0654018 -0.416417
internal_count=63863 52212 11651 7878 3773 18860 3302 33352 471 3804 16635
shrinkage=0.01


Tree=77
num_leaves=12
num_cat=0
split_feature=1 2 1 3 3 3 1 2 2 2 2
split_gain=221.445 43.5892 26.7763 14.1651 10.4776 9.81531 7.05656 8.86722 8.08006 5.82532 5.52056
threshold=0.035714285714285719 0.03500000000000001 0.083333333333333343 0.10897435897435899 0.21153846153846156 0.22435897435897442 0.17857142857142858 1.0000000180025095e-35 0.115 0.88500000000000012 0.085000000000000006
decision_type=2 2 2 2 2 2 2 2 2 2 2
left_child=1 3 4 -1 -2 -3 7 -4 -8 -6 -7
right_child=2 5 6 -5 9 10 8 -9 -10 -11 -12
leaf_value=-0.0023927972079328843 0.0049264619750213666 0.0019624136922366331 0.016279509867154443 -0.0060896491756455987 -0.00020787303981011334 -0.0064127819542373525 0.015887715795312549 0.0061885611738247285 0.0086263200021311631 0.018346439910900941 -0.00076829281739211619
leaf_count=10134 4472 6651 229 30333 3368 1758 213 2669 662 38 3336
internal_value=0 -0.340124 0.575915 -0.502384 0.312249 0.0294268 0.821034 0.686797 1.06587 0.0212669 -0.235864
internal_count=63863 52212 11651 40467 7878 11745 3773 2898 875 3406 5094
shrinkage=0.01


Tree=78
num_leaves=12
num_cat=0
split_feature=1 0 0 1 1 3 3 0 3 3 3
split_gain=216.636 44.1563 26.7493 16.9099 11.3252 9.85246 9.3565 8.98658 7.31394 5.56256 5.40886
threshold=0.035714285714285719 0.038261827956989257 -0.091197491039426509 0.15476190476190479 0.13095238095238099 0.10897435897435899 0.22435897435897442 -0.19484569892473116 0.18589743589743593 0.5064102564102565 0.5705128205128206
decision_type=2 2 2 2 2 2 2 2 2 2 2
left_child=1 7 4 10 9 -3 -6 -1 -9 -2 -4
right_child=2 5 3 -5 6 -7 -8 8 -10 -11 -12
leaf_value=-0.0070728260930733389 0.00017462397153422072 0.0016925132963255601 0.0060408452310129947 0.011337012302936834 0.010836019636467851 -0.0019542004859322911 -0.00046787857582342455 -0.0018422793462986875 -0.0056071242918452084 -0.010202813971417946 -0.0071472752303116758
leaf_count=16717 3326 6313 6551 841 296 12547 212 6018 10617 307 118
internal_value=0 -0.337852 0.567294 0.719587 0.14546 -0.0540914 0.65641 -0.552629 -0.411724 -0.055221 0.586113
internal_count=63863 52212 11651 7510 4141 18860 508 33352 16635 3633 6669
shrinkage=0.01


Tree=79
num_leaves=12
num_cat=0
split_feature=2 0 0 3 2 3 3 2 2 3 2
split_gain=158.436 47.56 32.403 11.9879 10.2755 7.54431 6.70696 6.52171 16.1074 7.19504 7.569
threshold=0.03500000000000001 1.0000000180025095e-35 -0.091197491039426509 0.22435897435897442 1.0000000180025095e-35 0.23717948717948725 0.10897435897435899 0.58500000000000008 0.69500000000000006 0.48076923076923089 0.75500000000000012
decision_type=2 2 2 2 2 2 2 2 2 2 2
left_child=1 -1 3 -2 -3 -4 -6 -7 -9 -10 -11
right_child=2 4 5 -5 6 7 -8 8 9 10 -12
leaf_value=-0.0064254345097668952 0.0024389261800594549 -0.0018987483016709237 0.0062898589403651978 -0.0031514875333284215 0.0058737808443566431 0.0023980798241354908 -7.8225673423414909e-05 0.044403425714277737 -0.00055165417665143377 0.049399152103839265 0.0070496506423466379
leaf_count=25556 3891 14659 7850 3481 1483 3729 2988 33 139 25 29
internal_value=0 -0.360061 0.386496 0.00311688 -0.0803255 0.543391 0.229847 0.312819 1.17595 0.564616 2.27227
internal_count=63863 44686 19177 7372 19130 11805 4471 3955 226 193 54
shrinkage=0.01


Tree=80
num_leaves=12
num_cat=0
split_feature=1 0 1 0 3 3 3 0 1 0 3
split_gain=236.136 44.1952 29.2596 27.3076 10.5295 9.24189 8.61216 6.63319 6.8143 6.08402 5.41639
threshold=0.035714285714285719 0.038261827956989257 0.13095238095238099 -0.19484569892473116 0.16025641025641027 0.12179487179487182 0.40384615384615391 0.070756630824372765 0.44047619047619052 -0.19484569892473116 0.67307692307692324
decision_type=2 2 2 2 2 2 2 2 2 2 2
left_child=1 5 3 -2 -3 -1 -5 -4 -9 -7 -6
right_child=2 4 7 6 10 9 -8 8 -10 -11 -12
leaf_value=-0.0029415981151329784 -0.0023212050435784562 0.0013018890380624313 0.0077474263774114554 0.0064090700424918844 -0.0025105937435417158 -0.0078783574105869975 0.00026984592093830722 0.011485072209532748 0.024857178579896534 -0.0050337926488255667 0.021453120450485658
leaf_count=7795 2472 8586 907 6561 10283 12638 979 744 29 12804 65
internal_value=0 -0.331586 0.611129 0.437026 -0.0495289 -0.548967 0.576275 1.01047 1.2307 -0.638067 -0.236278
internal_count=63863 52171 11692 10012 18934 33237 7540 1680 773 25442 10348
shrinkage=0.01


Tree=81
num_leaves=12
num_cat=0
split_feature=1 0 1 0 3 3 3 0 1 0 3
split_gain=230.872 43.7123 28.2289 26.5708 10.3357 9.19075 8.34402 6.3582 6.48784 6.07726 5.22331
threshold=0.035714285714285719 0.038261827956989257 0.13095238095238099 -0.19484569892473116 0.16025641025641027 0.12179487179487182 0.40384615384615391 0.070756630824372765 0.44047619047619052 -0.19484569892473116 0.67307692307692324
decision_type=2 2 2 2 2 2 2 2 2 2 2
left_child=1 5 3 -2 -3 -1 -5 -4 -9 -7 -6
right_child=2 4 7 6 10 9 -8 8 -10 -11 -12
leaf_value=-0.0029205536538905652 -0.0023031047916041111 0.0012872532731528286 0.0076200619718093856 0.0063074131415152643 -0.0024915667899538248 -0.0078601170991277891 0.00026707923281831485 0.011265328190569175 0.024210559386719958 -0.0050080601991643568 0.020799575284730705
leaf_count=7795 2472 8586 907 6561 10283 12638 979 744 29 12804 65
internal_value=0 -0.329342 0.601814 0.430904 -0.0490598 -0.546409 0.567472 0.992227 1.20663 -0.63565 -0.234454
internal_count=63863 52171 11692 10012 18934 33237 7540 1680 773 25442 10348
shrinkage=0.01


Tree=82
num_leaves=12
num_cat=0
split_feature=1 2 1 3 3 2 2 3 3 1 2
split_gain=225.74 42.1594 27.2432 26.6985 10.6129 10.0302 7.97914 6.42855 10.8566 8.69519 6.24726
threshold=0.035714285714285719 0.095000000000000015 0.13095238095238099 0.083333333333333356 0.40384615384615391 0.025000000000000005 0.045000000000000005 0.1730769230769231 0.14743589743589747 0.25000000000000006 0.81500000000000006
decision_type=2 2 2 2 2 2 2 2 2 2 2
left_child=1 3 4 5 10 -1 -4 8 9 -8 -2
right_child=2 -3 6 -5 -6 -7 7 -9 -10 -11 -12
leaf_value=-0.0020905007125036259 0.0046319058656685052 0.0015144599798662772 0.017005999514182683 -0.0057418872893133304 -0.00097313547596360986 0.0044868247326613651 0.0069355825644602668 0.0057116817842489311 0.022700178530590552 0.01450914724269 0.01278429527471984
leaf_count=7678 8395 7075 180 35854 1457 1564 616 599 78 207 160
internal_value=0 -0.327106 0.592693 -0.450117 0.424894 -0.0724211 0.974473 0.889842 1.06331 0.943832 0.493689
internal_count=63863 52171 11692 45096 10012 9242 1680 1500 901 823 8555
shrinkage=0.01


Tree=83
num_leaves=12
num_cat=0
split_feature=1 0 1 2 2 0 1 2 2 2 2
split_gain=220.738 43.2666 26.3382 21.189 21.0332 20.6427 10.1324 7.61342 7.46378 15.6889 6.51569
threshold=0.035714285714285719 0.038261827956989257 0.15476190476190479 0.20500000000000004 0.085000000000000006 -0.19484569892473116 0.083333333333333343 0.21500000000000002 0.23500000000000001 0.22500000000000003 0.025000000000000005
decision_type=2 2 2 2 2 2 2 2 2 2 2
left_child=1 3 5 10 -3 6 -2 -8 9 -5 -1
right_child=2 4 -4 8 -6 -7 7 -9 -10 -11 -12
leaf_value=-0.0068565940441414428 -0.0043037470849713114 -0.0019258891168081891 0.010265770894468325 0.0026154998381593153 0.0041289137556863656 0.005580483728243206 0.0012077240339957384 0.016039692374329301 0.0015437559300831767 0.058972104142261846 -0.0039125243917969297
leaf_count=24673 2015 15860 1198 87 3074 7932 430 117 1185 33 7259
internal_value=0 -0.324881 0.583761 -0.542147 -0.0459317 0.444607 -0.1149 0.470926 0.314685 2.04387 -0.603767
internal_count=63863 52171 11692 33237 18934 10494 2562 547 1305 120 31932
shrinkage=0.01


Tree=84
num_leaves=12
num_cat=0
split_feature=1 0 1 0 2 2 2 0 2 2 0
split_gain=215.859 42.7874 25.4701 25.0738 20.9354 20.5806 7.58138 10.5364 7.13488 14.2061 6.54462
threshold=0.035714285714285719 0.038261827956989257 0.13095238095238099 -0.19484569892473116 0.20500000000000004 0.085000000000000006 0.045000000000000005 0.070756630824372765 0.23500000000000001 0.22500000000000003 -0.19484569892473116
decision_type=2 2 2 2 2 2 2 2 2 2 2
left_child=1 4 3 -2 10 -3 7 -4 9 -6 -1
right_child=2 5 6 -5 8 -7 -8 -9 -10 -11 -12
leaf_value=-0.0073865193990373529 -0.0023020761955368512 -0.0019102089969936845 0.0086135068373614457 0.0054390237040264104 0.0025827999409761587 0.0040715792973240513 0.0085883516203772194 0.026179100025712661 0.0015260534330910883 0.055177338077790607 -0.004732780085167288
leaf_count=16185 2472 15860 112 7540 87 3074 1500 68 1185 33 15747
internal_value=0 -0.322668 0.574997 0.412981 -0.539594 -0.0454968 0.940943 1.64135 0.310545 1.98324 -0.601282
internal_count=63863 52171 11692 10012 33237 18934 1680 180 1305 120 31932
shrinkage=0.01


Tree=85
num_leaves=12
num_cat=0
split_feature=1 2 1 3 2 2 3 2 3 2 3
split_gain=168.19 61.0148 23.0123 15.7161 10.3293 8.65006 7.54883 7.15299 6.08215 10.8166 8.64491
threshold=0.035714285714285719 0.03500000000000001 0.13095238095238099 0.083333333333333356 0.19500000000000003 0.115 0.14743589743589747 0.92500000000000016 0.51923076923076927 0.19500000000000003 0.5064102564102565
decision_type=2 2 2 2 2 2 2 2 2 2 2
left_child=1 3 7 -1 -4 6 -3 8 10 -10 -2
right_child=2 5 4 -5 -6 -7 -8 -9 9 -11 -12
leaf_value=-0.0017618658781536549 0.0033220635939318738 0.0024462155745039152 0.010819847591687424 -0.0059366357042843773 0.0051737799262050492 0.0033718245731190421 -0.0028836625099445379 0.01338733719786611 -0.0091042995652035989 0.014916030619490738 0.023960407486006922
leaf_count=8280 9248 2353 965 32242 718 5184 4154 115 433 85 86
internal_value=0 -0.295511 0.49713 -0.492066 0.843227 0.141819 -0.0593496 0.342426 0.318254 -0.40273 0.347345
internal_count=63863 52213 11650 40522 1683 11691 6507 9967 9852 518 9334
shrinkage=0.01


Tree=86
num_leaves=12
num_cat=0
split_feature=1 2 1 3 2 2 3 2 3 2 3
split_gain=164.572 60.1798 22.263 15.5956 9.92685 8.44397 7.40612 6.89158 5.94746 10.5848 8.22704
threshold=0.035714285714285719 0.03500000000000001 0.13095238095238099 0.083333333333333356 0.19500000000000003 0.115 0.14743589743589747 0.92500000000000016 0.51923076923076927 0.19500000000000003 0.5064102564102565
decision_type=2 2 2 2 2 2 2 2 2 2 2
left_child=1 3 7 -1 -4 6 -3 8 10 -10 -2
right_child=2 5 4 -5 -6 -7 -8 -9 9 -11 -12
leaf_value=-0.0017472456720327139 0.0032786689649196665 0.0024160582775096524 0.010618527060639036 -0.0059116086528780325 0.0051004066080833918 0.0033273435918846211 -0.0028628509946199638 0.013101712019117522 -0.0090923619723405017 0.01456091202768155 0.023186641769054411
leaf_count=8280 9248 2353 965 32242 718 5184 4154 115 433 85 86
internal_value=0 -0.293413 0.490039 -0.489503 0.829108 0.140208 -0.0587939 0.337923 0.314134 -0.400298 0.342756
internal_count=63863 52213 11650 40522 1683 11691 6507 9967 9852 518 9334
shrinkage=0.01


Tree=87
num_leaves=12
num_cat=0
split_feature=2 0 0 3 2 0 0 3 2 3 2
split_gain=153.645 51.1254 26.9109 11.0217 10.764 7.20084 6.92779 8.15469 10.1118 7.96835 5.72556
threshold=0.03500000000000001 1.0000000180025095e-35 -0.29179731182795693 0.10897435897435899 0.99500000000000011 -0.19484569892473116 0.070756630824372765 0.1730769230769231 0.10500000000000002 0.083333333333333356 0.15500000000000003
decision_type=2 2 2 2 2 2 2 2 2 2 2
left_child=1 -1 -2 -3 6 -6 7 -4 -9 -8 -10
right_child=2 3 4 -5 5 -7 9 8 10 -11 -12
leaf_value=-0.006525197979798337 -0.0028804514820970012 0.0018274123265877532 0.0051543362105138926 -0.0021249234450436858 0.032320629707168695 0.010237807715827916 0.0037404785391882372 -0.0018241229990473235 0.0083233942839247808 0.0073875174809843423 0.0021537006168528771
leaf_count=25554 2800 6088 3652 13087 39 253 2962 3001 793 3570 2064
internal_value=0 -0.35197 0.382928 -0.0628804 0.455748 1.23352 0.427894 0.307556 0.143775 0.547913 0.375175
internal_count=63863 44729 19134 19175 16334 292 16042 9510 5858 6532 2857
shrinkage=0.01


Tree=88
num_leaves=12
num_cat=0
split_feature=1 2 0 1 0 0 2 0 2 2 2
split_gain=159.328 58.3077 27.7777 21.2439 18.4164 12.2974 9.58467 6.34467 6.58087 10.4466 6.11943
threshold=0.035714285714285719 0.03500000000000001 1.0000000180025095e-35 0.13095238095238099 -0.19484569892473116 0.070756630824372765 0.19500000000000003 -0.29179731182795693 0.22500000000000003 0.39500000000000007 0.50500000000000012
decision_type=2 2 2 2 2 2 2 2 2 2 2
left_child=1 2 -1 4 -2 7 -5 -3 -9 -10 -6
right_child=3 5 -4 6 10 -7 -8 8 9 -11 -12
leaf_value=-0.0072122399941975902 -0.0022326601731860562 -0.0048841827142952991 -0.0024169400323902357 0.010362627414539052 0.0039942148005748298 0.0043565135523875491 0.0049651883552488708 -0.00078080107409950086 0.017290044010401396 0.0016779692801160999 0.010164088444943306
leaf_count=23431 2449 1886 17091 965 7192 3543 718 5166 234 862 326
internal_value=0 -0.290321 -0.485016 0.479688 0.331187 0.134639 0.809052 -0.0498624 0.055521 0.500549 0.442141
internal_count=63863 52213 40522 11650 9967 11691 1683 8148 6262 1096 7518
shrinkage=0.01


Tree=89
num_leaves=12
num_cat=0
split_feature=1 2 0 1 0 0 2 0 2 2 2
split_gain=155.921 57.5065 27.6164 20.5631 17.9585 11.9932 9.21985 6.24772 6.41986 10.0056 5.9019
threshold=0.035714285714285719 0.03500000000000001 1.0000000180025095e-35 0.13095238095238099 -0.19484569892473116 0.070756630824372765 0.19500000000000003 -0.29179731182795693 0.22500000000000003 0.39500000000000007 0.50500000000000012
decision_type=2 2 2 2 2 2 2 2 2 2 2
left_child=1 2 -1 4 -2 7 -5 -3 -9 -10 -6
right_child=3 5 -4 6 10 -7 -8 8 9 -11 -12
leaf_value=-0.0071909579874350552 -0.002215061655052853 -0.0048584416716239663 -0.0023984226280582602 0.010174025928166941 0.0039396194653499566 0.0042950633663582337 0.004895671632431214 -0.00077357862631084056 0.016836530553395693 0.0016585304428643169 0.0099731008483823821
leaf_count=23431 2449 1886 17091 965 7192 3543 718 5166 234 862 326
internal_value=0 -0.288249 -0.482459 0.472932 0.326875 0.133115 0.795751 -0.0493963 0.0549294 0.49315 0.435939
internal_count=63863 52213 40522 11650 9967 11691 1683 8148 6262 1096 7518
shrinkage=0.01


Tree=90
num_leaves=12
num_cat=0
split_feature=1 0 1 0 3 0 3 3 0 3 1
split_gain=165.436 47.9011 22.7458 17.0046 13.6632 10.5412 7.68002 6.7019 5.06771 4.71808 3.81762
threshold=0.035714285714285719 0.038261827956989257 0.083333333333333343 -0.19484569892473116 0.1730769230769231 -0.19484569892473116 0.18589743589743593 0.67307692307692324 0.070756630824372765 0.5705128205128206 0.51190476190476197
decision_type=2 2 2 2 2 2 2 2 2 2 2
left_child=1 5 3 -2 -3 -1 -7 -6 -9 10 -4
right_child=2 4 9 -5 7 6 -8 8 -10 -11 -12
leaf_value=-0.0070776513732495709 -0.0038063799685475416 0.0018387689975436789 0.0069882478757412212 0.0037466780757910902 -0.0025408328073195405 -0.0014214443000197708 -0.0053609620562311963 0.060179815412212331 0.0081295535002356076 -0.0065920397561751486 0.01668069859324698
leaf_count=16690 2033 9207 3651 5902 9639 5997 10598 20 36 62 28
internal_value=0 -0.300738 0.482767 0.245141 -0.00766766 -0.533894 -0.378607 -0.237327 2.59426 0.701411 0.71662
internal_count=63863 52187 11676 7935 18902 33285 16595 9695 56 3741 3679
shrinkage=0.01


Tree=91
num_leaves=12
num_cat=0
split_feature=2 0 0 3 2 3 2 0 2 2 3
split_gain=134.657 54.6117 22.0465 13.1647 12.2286 9.44027 9.42131 9.39159 6.68923 10.2158 8.63205
threshold=0.03500000000000001 1.0000000180025095e-35 -0.29179731182795693 0.23717948717948725 1.0000000180025095e-35 0.1730769230769231 0.96500000000000008 -0.19484569892473116 0.055000000000000007 0.085000000000000006 0.21153846153846156
decision_type=2 2 2 2 2 2 2 2 2 2 2
left_child=1 -1 -2 6 5 -3 8 -8 10 -10 -4
right_child=2 4 3 -5 -6 -7 7 -9 9 -11 -12
leaf_value=-0.0065156292028737909 -0.0025427222431821835 0.00041989519561519677 0.0071984233272258877 0.0016455733726243298 0.0029824004375876441 -0.0037222536572703037 0.040143112710456223 0.010709864880925075 1.2257326413628555e-06 0.0051273613083082691 0.023451276053080627
